svm_type c_svc
kernel_type rbf
gamma 0.0022779
nr_class 2
total_sv 388
rho -0.917526
label 0 1
nr_sv 372 16
SV
0.08203125 12:1458 13:997 14:782 15:1006 16:10 17:10 18:10 19:11 72:1902 73:1063 74:1051 75:897 76:1157 77:1225 78:1202 79:1176 80:1113 81:1219 82:1263 83:1211 84:1199 85:1099 86:1219 87:1116 88:11 89:10 90:10 91:10 92:11 93:11 94:11 95:12 96:11 97:12 98:12 99:12 100:12 101:11 102:12 103:11 312:2531 313:1308 314:1352 315:986 316:1203 317:1486 318:1420 319:1424 320:1488 321:1159 322:1209 323:1282 324:1373 325:1051 326:1255 327:1260 328:1231 329:1506 330:1377 331:1373 332:1154 333:1352 334:1143 335:1287 336:1238 337:1300 338:1346 339:1423 340:1367 341:1454 342:1237 343:1210 344:1476 345:1121 346:1344 347:1284 348:1173 349:1448 350:1279 351:1111 352:1324 353:1219 354:1168 355:1389 356:1421 357:1214 358:1167 359:1080 360:1204 361:1337 362:1133 363:1066 364:1370 365:1234 366:1269 367:1242 368:1295 369:1241 370:1283 371:1092 372:1274 373:1349 374:1278 375:1208 376:13 377:11 378:11 379:10 380:11 381:12 382:12 383:12 384:12 385:11 386:10 387:11 388:12 389:10 390:11 391:11 392:11 393:12 394:12 395:12 396:11 397:12 398:11 399:11 400:11 401:11 402:12 403:12 404:12 405:12 406:11 407:11 408:12 409:11 410:11 411:11 412:11 413:12 414:11 415:10 416:11 417:11 418:11 419:12 420:12 421:11 422:11 423:10 424:11 425:11 426:11 427:10 428:12 429:11 430:11 431:11 432:11 433:11 434:11 435:11 436:11 437:12 438:11 439:11 
0.08203125 12:1527 13:679 14:682 15:1093 16:10 17:8 18:8 19:10 72:2126 73:1094 74:1247 75:1198 76:1081 77:1170 78:1196 79:989 80:1306 81:1038 82:1154 83:1125 84:1174 85:1139 86:1136 87:1144 88:12 89:9 90:10 91:10 92:9 93:10 94:10 95:9 96:10 97:10 98:10 99:10 100:10 101:10 102:10 103:10 312:2543 313:1094 314:1126 315:1307 316:1033 317:1132 318:1293 319:1313 320:1146 321:1265 322:1229 323:1361 324:1174 325:1213 326:1014 327:1120 328:1133 329:1145 330:1121 331:1255 332:1266 333:1287 334:1313 335:1022 336:1054 337:1177 338:1140 339:945 340:1206 341:1256 342:1149 343:1136 344:1065 345:1048 346:1253 347:1216 348:1184 349:1218 350:1292 351:1248 352:1127 353:1236 354:1202 355:1102 356:1260 357:977 358:1257 359:1182 360:1195 361:1044 362:1147 363:1072 364:1335 365:1122 366:1292 367:1142 368:940 369:1312 370:1138 371:1290 372:1276 373:1045 374:987 375:1171 376:12 377:8 378:9 379:9 380:8 381:9 382:9 383:9 384:9 385:9 386:9 387:10 388:9 389:9 390:8 391:9 392:9 393:9 394:9 395:9 396:9 397:9 398:9 399:8 400:8 401:9 402:9 403:8 404:9 405:9 406:9 407:9 408:8 409:8 410:9 411:9 412:9 413:9 414:9 415:9 416:9 417:9 418:9 419:9 420:9 421:8 422:9 423:9 424:9 425:8 426:9 427:9 428:9 429:9 430:9 431:9 432:8 433:9 434:9 435:9 436:9 437:8 438:8 439:9 
0.08203125 12:575 13:348 14:406 15:423 16:3 17:3 18:3 19:4 72:786 73:418 74:407 75:298 76:432 77:461 78:495 79:483 80:389 81:416 82:440 83:427 84:531 85:400 86:432 87:498 88:4 89:3 90:3 91:3 92:3 93:4 94:4 95:4 96:3 97:4 98:4 99:4 100:4 101:3 102:4 103:4 312:932 313:377 314:476 315:515 316:464 317:400 318:410 319:427 320:431 321:437 322:472 323:443 324:455 325:489 326:377 327:454 328:385 329:405 330:406 331:470 332:466 333:376 334:383 335:379 336:429 337:424 338:442 339:475 340:394 341:449 342:426 343:374 344:354 345:282 346:402 347:475 348:403 349:427 350:376 351:481 352:369 353:468 354:515 355:416 356:378 357:454 358:397 359:406 360:373 361:369 362:392 363:504 364:402 365:507 366:447 367:401 368:459 369:384 370:400 371:434 372:382 373:512 374:366 375:517 376:4 377:3 378:3 379:3 380:3 381:3 382:3 383:3 384:3 385:3 386:3 387:3 388:3 389:3 390:3 391:3 392:3 393:3 394:3 395:3 396:3 397:3 398:3 399:3 400:3 401:3 402:3 403:3 404:3 405:3 406:3 407:3 408:3 409:2 410:3 411:3 412:3 413:3 414:3 415:3 416:3 417:3 418:3 419:3 420:3 421:3 422:3 423:3 424:3 425:3 426:3 427:3 428:3 429:3 430:3 431:3 432:3 433:3 434:3 435:3 436:3 437:3 438:3 439:3 
0.08203125 12:523 13:454 14:502 15:582 16:4 17:5 18:5 19:6 72:706 73:490 74:631 75:603 76:593 77:618 78:646 79:632 80:659 81:590 82:814 83:738 84:653 85:624 86:597 87:687 88:5 89:4 90:5 91:5 92:5 93:5 94:5 95:5 96:5 97:5 98:6 99:6 100:6 101:5 102:5 103:6 312:908 313:633 314:540 315:498 316:552 317:568 318:645 319:651 320:460 321:637 322:699 323:502 324:591 325:629 326:660 327:535 328:522 329:598 330:738 331:683 332:590 333:555 334:606 335:653 336:723 337:613 338:599 339:553 340:621 341:599 342:658 343:534 344:486 345:644 346:728 347:502 348:691 349:609 350:626 351:656 352:666 353:643 354:688 355:554 356:673 357:560 358:517 359:645 360:702 361:591 362:550 363:632 364:644 365:619 366:604 367:538 368:646 369:666 370:595 371:584 372:604 373:656 374:586 375:696 376:5 377:4 378:4 379:4 380:4 381:4 382:5 383:5 384:4 385:5 386:5 387:4 388:4 389:5 390:5 391:4 392:4 393:4 394:5 395:5 396:4 397:4 398:5 399:5 400:5 401:5 402:5 403:4 404:5 405:5 406:5 407:4 408:4 409:5 410:5 411:4 412:5 413:5 414:5 415:5 416:5 417:5 418:5 419:4 420:5 421:4 422:4 423:5 424:5 425:5 426:4 427:5 428:5 429:5 430:5 431:4 432:5 433:5 434:5 435:4 436:5 437:5 438:4 439:5 
0.08203125 12:216 13:168 14:209 15:191 16:1 17:2 18:2 19:2 72:340 73:249 74:226 75:282 76:248 77:227 78:270 79:268 80:242 81:266 82:283 83:281 84:311 85:277 86:277 87:272 88:2 89:2 90:2 91:3 92:2 93:2 94:3 95:2 96:2 97:3 98:2 99:3 100:3 101:2 102:3 103:2 312:530 313:402 314:388 315:393 316:355 317:289 318:371 319:337 320:365 321:370 322:313 323:309 324:357 325:428 326:333 327:291 328:378 329:332 330:424 331:368 332:311 333:347 334:280 335:328 336:367 337:387 338:377 339:402 340:374 341:348 342:453 343:387 344:411 345:413 346:308 347:352 348:333 349:417 350:437 351:325 352:396 353:376 354:249 355:373 356:375 357:346 358:404 359:315 360:356 361:349 362:359 363:344 364:371 365:367 366:450 367:348 368:361 369:358 370:394 371:397 372:323 373:372 374:382 375:425 376:3 377:3 378:3 379:3 380:3 381:2 382:3 383:3 384:3 385:3 386:3 387:3 388:3 389:3 390:3 391:3 392:3 393:3 394:3 395:3 396:3 397:3 398:3 399:3 400:3 401:3 402:3 403:3 404:3 405:3 406:3 407:3 408:3 409:3 410:3 411:3 412:3 413:3 414:3 415:3 416:3 417:3 418:2 419:3 420:3 421:3 422:3 423:3 424:3 425:3 426:3 427:3 428:3 429:3 430:3 431:3 432:3 433:3 434:3 435:3 436:3 437:3 438:3 439:3 
0.08203125 12:1060 13:871 14:928 15:1040 16:8 17:9 18:10 19:11 72:1519 73:1095 74:1476 75:1162 76:1066 77:1242 78:1217 79:1051 80:1151 81:1176 82:1084 83:1318 84:1251 85:1181 86:1205 87:1246 88:10 89:10 90:11 91:11 92:10 93:11 94:11 95:10 96:11 97:11 98:10 99:11 100:11 101:11 102:11 103:11 312:2120 313:1243 314:1248 315:1420 316:1326 317:1376 318:1189 319:1243 320:1404 321:1153 322:1365 323:1413 324:1337 325:1254 326:1228 327:1242 328:1380 329:1197 330:1275 331:1261 332:1238 333:1178 334:1218 335:1251 336:1123 337:1319 338:1209 339:1174 340:1004 341:1180 342:1176 343:1370 344:1185 345:1186 346:1236 347:1181 348:1085 349:1287 350:1192 351:1124 352:1450 353:1132 354:1235 355:1161 356:1372 357:1201 358:1499 359:1275 360:1172 361:1322 362:1163 363:1206 364:1234 365:1134 366:936 367:1309 368:1370 369:1359 370:1324 371:1354 372:1369 373:1181 374:1134 375:1359 376:12 377:10 378:10 379:11 380:10 381:10 382:10 383:10 384:10 385:10 386:10 387:10 388:10 389:10 390:10 391:10 392:10 393:10 394:10 395:10 396:10 397:10 398:10 399:10 400:9 401:10 402:10 403:10 404:9 405:10 406:10 407:10 408:10 409:10 410:10 411:10 412:9 413:10 414:10 415:9 416:11 417:9 418:10 419:10 420:10 421:10 422:11 423:10 424:10 425:10 426:10 427:10 428:10 429:9 430:9 431:10 432:10 433:10 434:10 435:10 436:10 437:10 438:9 439:10 
0.08203125 12:2730 13:1413 14:1603 15:1514 16:15 17:13 18:13 19:13 72:3225 73:1311 74:1303 75:1198 76:1350 77:1687 78:1266 79:1343 80:1535 81:1225 82:1414 83:1353 84:1188 85:1542 86:1412 87:1487 88:16 89:11 90:11 91:10 92:11 93:12 94:11 95:11 96:12 97:10 98:11 99:11 100:10 101:12 102:11 103:11 312:1776 313:594 314:735 315:731 316:580 317:732 318:747 319:712 320:667 321:615 322:561 323:656 324:657 325:751 326:723 327:638 328:705 329:628 330:647 331:608 332:629 333:584 334:597 335:591 336:595 337:613 338:670 339:672 340:527 341:599 342:573 343:638 344:694 345:515 346:735 347:693 348:751 349:842 350:669 351:758 352:720 353:755 354:442 355:627 356:703 357:713 358:775 359:705 360:739 361:689 362:776 363:689 364:737 365:698 366:691 367:557 368:642 369:589 370:629 371:717 372:782 373:598 374:648 375:633 376:8 377:4 378:5 379:5 380:4 381:5 382:5 383:5 384:5 385:4 386:4 387:5 388:5 389:5 390:5 391:4 392:5 393:4 394:4 395:4 396:4 397:4 398:4 399:4 400:4 401:4 402:5 403:5 404:4 405:4 406:4 407:4 408:5 409:4 410:5 411:5 412:5 413:5 414:5 415:5 416:5 417:5 418:4 419:4 420:5 421:5 422:5 423:5 424:5 425:5 426:5 427:5 428:5 429:5 430:5 431:4 432:4 433:4 434:4 435:5 436:5 437:4 438:5 439:4 
0.08203125 12:887 13:867 14:511 15:780 16:7 17:8 18:6 19:8 72:1088 73:763 74:878 75:988 76:676 77:872 78:869 79:953 80:822 81:927 82:962 83:949 84:839 85:706 86:936 87:1036 88:7 89:7 90:7 91:8 92:7 93:8 94:8 95:8 96:8 97:8 98:8 99:8 100:8 101:7 102:8 103:9 312:1407 313:1077 314:971 315:691 316:925 317:1252 318:846 319:933 320:828 321:864 322:835 323:771 324:935 325:868 326:929 327:906 328:918 329:1154 330:820 331:858 332:816 333:498 334:881 335:871 336:858 337:810 338:822 339:984 340:960 341:828 342:814 343:1053 344:831 345:848 346:931 347:913 348:935 349:679 350:967 351:830 352:928 353:686 354:592 355:889 356:875 357:867 358:843 359:1099 360:844 361:929 362:969 363:999 364:691 365:808 366:872 367:820 368:828 369:696 370:803 371:776 372:992 373:819 374:907 375:978 376:8 377:7 378:7 379:6 380:7 381:8 382:7 383:7 384:7 385:7 386:7 387:7 388:7 389:7 390:7 391:7 392:7 393:8 394:7 395:7 396:7 397:5 398:7 399:7 400:7 401:7 402:7 403:8 404:8 405:7 406:7 407:8 408:7 409:7 410:7 411:7 412:7 413:6 414:8 415:7 416:7 417:6 418:6 419:7 420:7 421:7 422:7 423:8 424:7 425:7 426:8 427:8 428:6 429:7 430:7 431:7 432:7 433:6 434:7 435:7 436:8 437:7 438:7 439:8 
0.08203125 12:3364 13:1813 14:1658 15:1628 16:18 17:16 18:15 19:15 72:4351 73:1802 74:1710 75:2234 76:1806 77:1569 78:1903 79:1786 80:1875 81:1596 82:1876 83:1909 84:2424 85:1886 86:1724 87:1759 88:21 89:14 90:14 91:16 92:14 93:13 94:15 95:15 96:15 97:14 98:15 99:15 100:17 101:15 102:14 103:14 312:2304 313:775 314:772 315:738 316:912 317:906 318:782 319:941 320:872 321:839 322:714 323:776 324:822 325:758 326:731 327:847 328:777 329:859 330:870 331:856 332:717 333:699 334:903 335:633 336:765 337:1078 338:891 339:823 340:652 341:759 342:844 343:789 344:681 345:821 346:697 347:818 348:889 349:911 350:771 351:768 352:832 353:849 354:706 355:807 356:627 357:1020 358:768 359:874 360:871 361:854 362:832 363:900 364:811 365:748 366:741 367:686 368:965 369:807 370:821 371:772 372:857 373:832 374:877 375:630 376:10 377:5 378:5 379:5 380:6 381:6 382:5 383:6 384:6 385:6 386:5 387:5 388:6 389:5 390:5 391:6 392:5 393:6 394:6 395:6 396:5 397:5 398:6 399:5 400:5 401:7 402:6 403:6 404:5 405:5 406:6 407:6 408:5 409:6 410:5 411:6 412:6 413:6 414:5 415:5 416:6 417:6 418:5 419:6 420:5 421:6 422:5 423:6 424:6 425:6 426:6 427:6 428:6 429:5 430:5 431:5 432:6 433:6 434:6 435:5 436:6 437:6 438:6 439:5 
0.08203125 12:761 13:494 14:543 15:596 16:5 17:5 18:5 19:6 72:1059 73:593 74:671 75:770 76:645 77:753 78:743 79:741 80:680 81:750 82:799 83:506 84:850 85:763 86:682 87:630 88:6 89:5 90:6 91:6 92:5 93:6 94:6 95:6 96:6 97:6 98:6 99:5 100:7 101:6 102:6 103:6 312:1262 313:577 314:695 315:715 316:538 317:1025 318:667 319:605 320:688 321:640 322:688 323:658 324:637 325:598 326:662 327:716 328:708 329:911 330:705 331:588 332:719 333:743 334:602 335:683 336:605 337:724 338:620 339:692 340:540 341:631 342:723 343:667 344:758 345:631 346:740 347:529 348:592 349:730 350:615 351:582 352:706 353:669 354:731 355:626 356:820 357:639 358:695 359:607 360:726 361:661 362:617 363:614 364:653 365:591 366:688 367:556 368:703 369:664 370:666 371:799 372:652 373:641 374:715 375:575 376:6 377:4 378:5 379:5 380:4 381:6 382:5 383:5 384:5 385:5 386:5 387:5 388:5 389:5 390:5 391:5 392:5 393:6 394:5 395:5 396:5 397:5 398:5 399:5 400:5 401:5 402:5 403:5 404:4 405:5 406:5 407:5 408:5 409:5 410:5 411:4 412:5 413:5 414:5 415:5 416:5 417:5 418:5 419:5 420:6 421:5 422:5 423:5 424:5 425:5 426:5 427:5 428:5 429:5 430:5 431:5 432:5 433:5 434:5 435:5 436:5 437:5 438:5 439:5 
0.08203125 12:471 13:327 14:330 15:435 16:3 17:3 18:3 19:4 72:746 73:488 74:505 75:530 76:483 77:573 78:591 79:463 80:549 81:576 82:499 83:519 84:492 85:557 86:504 87:460 88:4 89:4 90:4 91:4 92:4 93:4 94:5 95:4 96:4 97:5 98:4 99:4 100:4 101:4 102:4 103:4 312:983 313:481 314:604 315:563 316:538 317:622 318:465 319:416 320:583 321:661 322:531 323:445 324:557 325:627 326:595 327:507 328:555 329:576 330:574 331:592 332:551 333:467 334:615 335:540 336:528 337:634 338:579 339:453 340:487 341:472 342:522 343:603 344:532 345:613 346:481 347:436 348:517 349:482 350:487 351:480 352:619 353:630 354:529 355:517 356:479 357:555 358:551 359:490 360:616 361:538 362:557 363:505 364:461 365:502 366:538 367:540 368:681 369:561 370:608 371:512 372:578 373:648 374:561 375:548 376:5 377:4 378:4 379:4 380:4 381:4 382:4 383:3 384:4 385:4 386:4 387:3 388:4 389:4 390:4 391:4 392:4 393:4 394:4 395:4 396:4 397:4 398:4 399:4 400:4 401:4 402:4 403:4 404:4 405:4 406:4 407:4 408:4 409:4 410:4 411:3 412:4 413:4 414:4 415:4 416:4 417:4 418:4 419:4 420:4 421:4 422:4 423:4 424:4 425:4 426:4 427:4 428:4 429:4 430:4 431:4 432:4 433:4 434:4 435:4 436:4 437:4 438:4 439:4 
0.08203125 12:1855 13:917 14:999 15:969 16:10 17:8 18:9 19:9 72:2005 73:912 74:868 75:910 76:898 77:1057 78:857 79:1025 80:821 81:1046 82:1038 83:978 84:887 85:925 86:907 87:896 88:10 89:7 90:7 91:7 92:7 93:7 94:7 95:7 96:7 97:7 98:7 99:7 100:7 101:7 102:7 103:7 312:990 313:357 314:374 315:352 316:387 317:445 318:389 319:411 320:413 321:423 322:495 323:367 324:396 325:316 326:384 327:335 328:297 329:433 330:385 331:451 332:379 333:476 334:435 335:328 336:378 337:389 338:376 339:450 340:358 341:387 342:312 343:373 344:438 345:411 346:474 347:395 348:401 349:364 350:358 351:357 352:465 353:339 354:318 355:378 356:388 357:430 358:351 359:387 360:349 361:448 362:352 363:431 364:412 365:308 366:371 367:383 368:383 369:457 370:504 371:355 372:385 373:386 374:410 375:388 376:4 377:2 378:2 379:2 380:2 381:3 382:2 383:3 384:3 385:3 386:3 387:2 388:2 389:2 390:2 391:2 392:2 393:3 394:2 395:3 396:2 397:3 398:3 399:2 400:2 401:2 402:2 403:3 404:2 405:2 406:2 407:2 408:3 409:3 410:3 411:2 412:3 413:2 414:2 415:2 416:3 417:2 418:2 419:2 420:2 421:3 422:2 423:2 424:2 425:3 426:2 427:3 428:3 429:2 430:2 431:2 432:2 433:3 434:3 435:2 436:2 437:2 438:3 439:2 
0.08203125 12:1908 13:1172 14:1356 15:1312 16:12 17:11 18:12 19:12 72:2628 73:1303 74:1318 75:1246 76:1342 77:1136 78:1338 79:1392 80:1284 81:1241 82:1358 83:1220 84:1292 85:1421 86:1395 87:1287 88:14 89:11 90:11 91:11 92:11 93:10 94:11 95:12 96:11 97:11 98:11 99:11 100:11 101:12 102:11 103:11 312:2535 313:1021 314:1064 315:973 316:978 317:1114 318:881 319:1108 320:1209 321:1013 322:1036 323:999 324:938 325:968 326:1015 327:1070 328:864 329:1036 330:1029 331:990 332:560 333:1100 334:1007 335:1116 336:984 337:966 338:1115 339:901 340:1059 341:883 342:1015 343:897 344:1251 345:979 346:1058 347:1102 348:930 349:959 350:1028 351:955 352:1198 353:969 354:1065 355:1044 356:841 357:922 358:1057 359:1046 360:1080 361:949 362:910 363:862 364:1009 365:1067 366:993 367:1000 368:956 369:979 370:1053 371:1083 372:864 373:1093 374:1104 375:827 376:12 377:7 378:8 379:7 380:7 381:8 382:7 383:8 384:8 385:7 386:7 387:7 388:7 389:7 390:7 391:8 392:7 393:7 394:7 395:7 396:5 397:8 398:7 399:8 400:7 401:7 402:8 403:7 404:8 405:7 406:7 407:7 408:8 409:7 410:8 411:8 412:7 413:7 414:7 415:7 416:8 417:7 418:8 419:7 420:7 421:7 422:8 423:7 424:8 425:7 426:7 427:7 428:7 429:8 430:7 431:7 432:7 433:7 434:8 435:8 436:7 437:8 438:8 439:7 
0.08203125 12:1341 13:777 14:802 15:910 16:8 17:8 18:9 19:9 72:1713 73:876 74:1010 75:980 76:949 77:1197 78:1054 79:1020 80:881 81:872 82:1025 83:1037 84:1146 85:974 86:1030 87:1030 88:10 89:8 90:9 91:9 92:9 93:9 94:9 95:9 96:9 97:9 98:9 99:9 100:10 101:9 102:9 103:9 312:1957 313:1014 314:873 315:705 316:1009 317:1355 318:1013 319:962 320:927 321:822 322:1059 323:871 324:1012 325:845 326:939 327:993 328:785 329:1164 330:1013 331:971 332:1036 333:970 334:891 335:940 336:767 337:963 338:895 339:948 340:1003 341:1071 342:1148 343:1063 344:922 345:931 346:935 347:963 348:1289 349:1083 350:945 351:1085 352:1017 353:1003 354:907 355:1078 356:1081 357:1084 358:994 359:1099 360:997 361:913 362:964 363:1042 364:1023 365:1086 366:997 367:824 368:940 369:944 370:926 371:981 372:934 373:1036 374:880 375:1072 376:10 377:8 378:7 379:7 380:8 381:9 382:8 383:8 384:8 385:7 386:8 387:7 388:8 389:7 390:8 391:8 392:7 393:8 394:8 395:8 396:8 397:8 398:8 399:8 400:7 401:8 402:8 403:8 404:8 405:8 406:9 407:8 408:8 409:8 410:8 411:8 412:9 413:8 414:8 415:8 416:8 417:8 418:8 419:8 420:8 421:8 422:8 423:8 424:8 425:8 426:8 427:8 428:8 429:8 430:8 431:7 432:8 433:8 434:8 435:8 436:8 437:8 438:8 439:8 
0.08203125 12:2141 13:1280 14:1115 15:1296 16:13 17:11 18:11 19:11 72:2518 73:1172 74:1139 75:1201 76:1189 77:1379 78:1243 79:1050 80:1283 81:1131 82:1324 83:1197 84:1409 85:1140 86:1094 87:1156 88:13 89:9 90:9 91:9 92:9 93:10 94:10 95:9 96:10 97:9 98:10 99:9 100:10 101:9 102:9 103:9 312:1248 313:509 314:481 315:541 316:481 317:439 318:447 319:542 320:499 321:433 322:480 323:526 324:503 325:496 326:496 327:454 328:597 329:519 330:402 331:634 332:545 333:497 334:487 335:455 336:448 337:441 338:515 339:536 340:521 341:399 342:483 343:420 344:502 345:507 346:438 347:556 348:547 349:491 350:565 351:441 352:570 353:424 354:410 355:522 356:556 357:580 358:403 359:448 360:491 361:507 362:515 363:515 364:483 365:502 366:389 367:494 368:581 369:433 370:456 371:526 372:437 373:518 374:528 375:443 376:5 377:3 378:3 379:3 380:3 381:3 382:3 383:3 384:3 385:3 386:3 387:3 388:3 389:3 390:3 391:3 392:4 393:3 394:3 395:4 396:3 397:3 398:3 399:3 400:3 401:3 402:3 403:3 404:3 405:3 406:3 407:3 408:3 409:3 410:3 411:3 412:3 413:3 414:3 415:3 416:3 417:3 418:3 419:3 420:3 421:3 422:3 423:3 424:3 425:3 426:3 427:3 428:3 429:3 430:3 431:3 432:3 433:3 434:3 435:3 436:3 437:3 438:3 439:3 
0.08203125 12:443 13:343 14:349 15:369 16:3 17:3 18:3 19:4 72:611 73:342 74:378 75:445 76:327 77:662 78:437 79:471 80:326 81:483 82:522 83:443 84:500 85:486 86:430 87:440 88:4 89:3 90:3 91:4 92:3 93:5 94:4 95:4 96:3 97:4 98:4 99:4 100:4 101:4 102:4 103:4 312:804 313:396 314:494 315:482 316:410 317:639 318:558 319:434 320:476 321:457 322:665 323:515 324:487 325:483 326:490 327:477 328:418 329:734 330:426 331:408 332:535 333:547 334:528 335:560 336:478 337:576 338:520 339:584 340:583 341:498 342:481 343:514 344:420 345:526 346:585 347:639 348:549 349:485 350:542 351:502 352:597 353:520 354:686 355:489 356:575 357:571 358:526 359:525 360:434 361:507 362:538 363:537 364:516 365:535 366:517 367:532 368:501 369:575 370:461 371:523 372:527 373:509 374:512 375:431 376:5 377:3 378:4 379:4 380:3 381:4 382:4 383:4 384:4 385:4 386:4 387:4 388:4 389:4 390:4 391:4 392:4 393:5 394:4 395:4 396:4 397:4 398:4 399:5 400:4 401:4 402:4 403:5 404:4 405:4 406:4 407:4 408:4 409:4 410:4 411:5 412:4 413:4 414:4 415:4 416:4 417:4 418:5 419:4 420:5 421:5 422:4 423:4 424:4 425:4 426:4 427:4 428:4 429:4 430:4 431:4 432:4 433:5 434:4 435:4 436:4 437:4 438:4 439:4 
0.08203125 12:708 13:397 14:607 15:524 16:5 17:4 18:5 19:5 72:1007 73:582 74:703 75:704 76:588 77:747 78:580 79:618 80:521 81:655 82:777 83:713 84:688 85:614 86:685 87:729 88:6 89:5 90:5 91:6 92:5 93:6 94:5 95:5 96:5 97:6 98:6 99:6 100:6 101:5 102:6 103:6 312:1306 313:596 314:587 315:561 316:661 317:716 318:598 319:754 320:646 321:692 322:480 323:663 324:600 325:644 326:678 327:573 328:621 329:816 330:578 331:575 332:583 333:749 334:522 335:622 336:493 337:626 338:659 339:639 340:718 341:565 342:726 343:522 344:496 345:722 346:644 347:518 348:629 349:629 350:597 351:740 352:682 353:636 354:618 355:613 356:608 357:540 358:684 359:677 360:646 361:744 362:689 363:756 364:607 365:573 366:407 367:698 368:567 369:720 370:565 371:642 372:633 373:578 374:627 375:616 376:6 377:4 378:4 379:4 380:5 381:5 382:5 383:5 384:5 385:5 386:4 387:5 388:5 389:5 390:5 391:4 392:5 393:5 394:4 395:4 396:4 397:5 398:4 399:5 400:4 401:5 402:5 403:5 404:5 405:4 406:5 407:4 408:4 409:5 410:5 411:4 412:5 413:5 414:5 415:5 416:5 417:5 418:5 419:5 420:5 421:4 422:5 423:5 424:5 425:5 426:5 427:5 428:5 429:4 430:4 431:5 432:4 433:5 434:4 435:5 436:5 437:4 438:5 439:5 
0.08203125 12:841 13:897 14:703 15:650 16:7 17:8 18:8 19:8 72:1236 73:930 74:1005 75:1156 76:883 77:1027 78:859 79:881 80:1092 81:934 82:881 83:925 84:984 85:1041 86:1027 87:925 88:8 89:8 90:9 91:10 92:8 93:9 94:8 95:9 96:9 97:9 98:8 99:9 100:9 101:9 102:9 103:9 312:1901 313:1073 314:1016 315:1139 316:1025 317:1139 318:1016 319:1174 320:1154 321:1108 322:960 323:1218 324:875 325:1105 326:947 327:1030 328:1027 329:1035 330:920 331:926 332:1119 333:1028 334:952 335:1028 336:1110 337:952 338:1086 339:1092 340:1120 341:945 342:1081 343:1042 344:955 345:1074 346:1128 347:1047 348:1007 349:1021 350:1062 351:1160 352:938 353:1063 354:1037 355:1024 356:985 357:1088 358:1056 359:1049 360:967 361:1071 362:963 363:1087 364:1117 365:1191 366:1154 367:1120 368:1024 369:1198 370:1130 371:1136 372:1175 373:885 374:1004 375:1109 376:10 377:8 378:8 379:9 380:8 381:9 382:8 383:9 384:9 385:9 386:8 387:9 388:8 389:9 390:8 391:8 392:8 393:8 394:8 395:8 396:9 397:8 398:8 399:8 400:9 401:8 402:9 403:9 404:9 405:8 406:9 407:8 408:8 409:9 410:9 411:9 412:8 413:8 414:9 415:9 416:8 417:9 418:8 419:8 420:8 421:9 422:9 423:8 424:8 425:9 426:8 427:9 428:9 429:9 430:9 431:9 432:8 433:9 434:9 435:9 436:9 437:8 438:8 439:9 
0.08203125 12:621 13:475 14:456 15:465 16:4 17:4 18:5 19:5 72:920 73:555 74:530 75:550 76:530 77:667 78:630 79:601 80:585 81:612 82:661 83:634 84:596 85:633 86:589 87:665 88:5 89:5 90:5 91:5 92:5 93:5 94:5 95:5 96:5 97:5 98:5 99:5 100:5 101:5 102:5 103:5 312:1257 313:695 314:804 315:594 316:482 317:686 318:600 319:884 320:675 321:588 322:561 323:597 324:709 325:690 326:636 327:513 328:546 329:601 330:692 331:547 332:652 333:597 334:627 335:661 336:523 337:534 338:758 339:713 340:749 341:733 342:648 343:588 344:570 345:634 346:687 347:675 348:548 349:667 350:579 351:618 352:643 353:621 354:575 355:569 356:672 357:615 358:611 359:599 360:640 361:674 362:693 363:577 364:569 365:712 366:713 367:615 368:729 369:672 370:603 371:603 372:705 373:759 374:501 375:648 376:6 377:5 378:5 379:5 380:4 381:5 382:5 383:6 384:5 385:5 386:4 387:5 388:5 389:5 390:5 391:4 392:4 393:5 394:5 395:4 396:5 397:5 398:5 399:5 400:4 401:4 402:5 403:5 404:5 405:5 406:5 407:5 408:4 409:5 410:5 411:5 412:4 413:5 414:4 415:5 416:5 417:5 418:4 419:4 420:5 421:5 422:5 423:5 424:5 425:5 426:5 427:4 428:4 429:5 430:5 431:5 432:5 433:5 434:5 435:5 436:5 437:5 438:4 439:5 
0.08203125 12:747 13:680 14:598 15:734 16:6 17:6 18:6 19:8 72:1111 73:777 74:890 75:857 76:817 77:1265 78:985 79:922 80:843 81:933 82:954 83:880 84:883 85:889 86:879 87:873 88:8 89:7 90:8 91:8 92:7 93:9 94:9 95:8 96:8 97:9 98:8 99:8 100:8 101:8 102:8 103:8 312:1535 313:1184 314:1019 315:1079 316:1137 317:1125 318:995 319:822 320:980 321:910 322:834 323:926 324:942 325:922 326:1000 327:977 328:977 329:1202 330:814 331:937 332:1307 333:1086 334:1101 335:869 336:1010 337:1068 338:1062 339:1111 340:954 341:970 342:1043 343:778 344:1137 345:942 346:1096 347:1058 348:1015 349:851 350:1021 351:799 352:886 353:999 354:1155 355:1007 356:1051 357:936 358:1030 359:930 360:976 361:1044 362:937 363:1135 364:1025 365:1140 366:864 367:1038 368:1011 369:848 370:1049 371:949 372:1081 373:967 374:1037 375:1080 376:9 377:8 378:8 379:8 380:8 381:8 382:8 383:7 384:8 385:8 386:7 387:8 388:8 389:8 390:8 391:8 392:8 393:9 394:7 395:8 396:9 397:8 398:9 399:8 400:8 401:8 402:8 403:9 404:8 405:8 406:8 407:7 408:8 409:8 410:8 411:8 412:8 413:8 414:8 415:7 416:8 417:8 418:9 419:8 420:8 421:8 422:8 423:8 424:8 425:8 426:8 427:9 428:8 429:9 430:8 431:8 432:8 433:8 434:8 435:8 436:8 437:8 438:8 439:8 
0.08203125 12:279 13:139 14:260 15:290 16:2 17:2 18:2 19:3 72:430 73:265 74:312 75:319 76:297 77:384 78:373 79:365 80:299 81:354 82:350 83:332 84:349 85:324 86:354 87:363 88:3 89:2 90:2 91:3 92:2 93:3 94:3 95:3 96:3 97:3 98:3 99:3 100:3 101:3 102:3 103:3 312:624 313:358 314:387 315:345 316:363 317:476 318:350 319:349 320:343 321:399 322:505 323:358 324:393 325:369 326:362 327:326 328:382 329:486 330:432 331:416 332:354 333:437 334:383 335:399 336:432 337:450 338:405 339:414 340:360 341:447 342:429 343:413 344:400 345:440 346:443 347:423 348:412 349:404 350:393 351:383 352:372 353:408 354:322 355:377 356:398 357:368 358:439 359:341 360:402 361:408 362:450 363:395 364:436 365:396 366:417 367:288 368:430 369:339 370:353 371:342 372:355 373:393 374:409 375:344 376:3 377:3 378:3 379:3 380:3 381:3 382:3 383:3 384:3 385:3 386:3 387:3 388:3 389:3 390:3 391:3 392:3 393:3 394:3 395:3 396:3 397:3 398:3 399:3 400:3 401:3 402:3 403:3 404:3 405:3 406:3 407:3 408:3 409:3 410:3 411:3 412:3 413:3 414:3 415:3 416:3 417:3 418:3 419:3 420:3 421:3 422:3 423:3 424:3 425:3 426:3 427:3 428:3 429:3 430:3 431:2 432:3 433:3 434:3 435:3 436:3 437:3 438:3 439:3 
0.08203125 12:1202 13:739 14:778 15:813 16:7 17:7 18:7 19:7 72:1624 73:786 74:864 75:718 76:784 77:789 78:699 79:893 80:790 81:832 82:877 83:919 84:818 85:880 86:799 87:807 88:9 89:6 90:7 91:6 92:6 93:6 94:6 95:7 96:6 97:7 98:7 99:7 100:7 101:7 102:7 103:7 312:1335 313:553 314:511 315:573 316:483 317:602 318:683 319:564 320:595 321:591 322:437 323:641 324:582 325:565 326:492 327:666 328:537 329:552 330:582 331:566 332:742 333:561 334:598 335:604 336:489 337:624 338:574 339:550 340:603 341:750 342:583 343:560 344:686 345:600 346:739 347:510 348:661 349:653 350:554 351:635 352:564 353:503 354:571 355:592 356:504 357:514 358:616 359:557 360:509 361:434 362:488 363:642 364:574 365:614 366:670 367:554 368:541 369:459 370:638 371:603 372:593 373:641 374:559 375:472 376:6 377:4 378:4 379:4 380:4 381:4 382:4 383:4 384:4 385:4 386:3 387:4 388:4 389:4 390:4 391:4 392:4 393:4 394:4 395:4 396:5 397:4 398:4 399:4 400:4 401:4 402:4 403:4 404:4 405:5 406:4 407:4 408:4 409:4 410:5 411:4 412:4 413:4 414:4 415:4 416:4 417:4 418:4 419:4 420:4 421:4 422:4 423:4 424:4 425:3 426:4 427:4 428:4 429:4 430:4 431:4 432:4 433:4 434:4 435:4 436:4 437:4 438:4 439:4 
0.08203125 12:672 13:441 14:369 15:533 16:4 17:4 18:4 19:5 72:954 73:560 74:486 75:570 76:541 77:739 78:612 79:640 80:554 81:551 82:748 83:600 84:607 85:536 86:597 87:644 88:6 89:4 90:4 91:5 92:5 93:5 94:5 95:5 96:5 97:5 98:5 99:5 100:5 101:5 102:5 103:5 312:1144 313:514 314:672 315:593 316:498 317:720 318:619 319:638 320:657 321:543 322:603 323:635 324:595 325:655 326:602 327:605 328:563 329:598 330:695 331:555 332:676 333:427 334:443 335:551 336:538 337:691 338:578 339:630 340:446 341:600 342:603 343:429 344:632 345:502 346:624 347:525 348:557 349:481 350:555 351:561 352:643 353:613 354:837 355:357 356:554 357:562 358:631 359:567 360:589 361:552 362:538 363:600 364:593 365:713 366:594 367:677 368:603 369:572 370:510 371:526 372:621 373:689 374:496 375:509 376:6 377:4 378:4 379:4 380:4 381:5 382:4 383:4 384:4 385:4 386:4 387:4 388:4 389:4 390:4 391:4 392:4 393:4 394:5 395:4 396:4 397:3 398:4 399:4 400:4 401:5 402:4 403:4 404:4 405:4 406:4 407:3 408:4 409:4 410:4 411:4 412:4 413:4 414:4 415:4 416:4 417:4 418:5 419:3 420:4 421:4 422:4 423:4 424:4 425:4 426:4 427:4 428:4 429:5 430:4 431:4 432:4 433:4 434:4 435:4 436:4 437:5 438:4 439:4 
0.08203125 12:3232 13:1802 14:1921 15:1656 16:18 17:16 18:16 19:16 72:3842 73:1653 74:1448 75:1562 76:1705 77:1996 78:1925 79:1639 80:1849 81:1742 82:1853 83:1539 84:1569 85:1831 86:1553 87:1768 88:19 89:13 90:13 91:13 92:14 93:15 94:15 95:14 96:14 97:14 98:14 99:13 100:13 101:14 102:13 103:14 312:2464 313:1007 314:931 315:981 316:928 317:1021 318:849 319:941 320:1036 321:955 322:844 323:1005 324:786 325:1077 326:834 327:799 328:849 329:832 330:997 331:1010 332:840 333:915 334:1059 335:915 336:752 337:870 338:954 339:1199 340:894 341:1033 342:852 343:826 344:804 345:1001 346:990 347:1033 348:911 349:757 350:880 351:913 352:862 353:955 354:1092 355:990 356:844 357:926 358:907 359:918 360:810 361:1082 362:932 363:863 364:938 365:1029 366:732 367:977 368:815 369:859 370:944 371:818 372:857 373:880 374:885 375:767 376:11 377:7 378:7 379:7 380:7 381:7 382:6 383:7 384:7 385:7 386:6 387:7 388:6 389:7 390:6 391:6 392:6 393:6 394:7 395:7 396:6 397:6 398:7 399:6 400:6 401:6 402:7 403:8 404:6 405:7 406:6 407:6 408:6 409:7 410:7 411:7 412:6 413:6 414:6 415:6 416:6 417:7 418:7 419:7 420:6 421:7 422:6 423:6 424:6 425:7 426:7 427:6 428:7 429:7 430:6 431:7 432:6 433:6 434:7 435:6 436:6 437:6 438:6 439:6 
0.08203125 12:3034 13:1575 14:1764 15:1646 16:17 17:14 18:16 19:15 72:3728 73:1509 74:1657 75:1489 76:1703 77:1593 78:1571 79:1653 80:1666 81:1401 82:1910 83:1625 84:1800 85:1799 86:1527 87:1815 88:19 89:13 90:14 91:13 92:14 93:13 94:13 95:14 96:14 97:13 98:15 99:13 100:14 101:14 102:13 103:14 312:2764 313:1194 314:1194 315:1014 316:945 317:878 318:859 319:940 320:950 321:861 322:1045 323:1011 324:1081 325:936 326:1289 327:987 328:1131 329:1010 330:1017 331:1155 332:942 333:914 334:1109 335:1053 336:1144 337:947 338:1132 339:951 340:1017 341:858 342:1050 343:1098 344:1066 345:1073 346:1224 347:1190 348:1094 349:983 350:1144 351:906 352:1071 353:1083 354:1098 355:1082 356:948 357:1024 358:1099 359:974 360:1259 361:1096 362:1033 363:1145 364:1060 365:921 366:1160 367:951 368:1133 369:914 370:1062 371:994 372:927 373:982 374:923 375:780 376:12 377:8 378:8 379:7 380:7 381:7 382:7 383:7 384:7 385:7 386:7 387:7 388:8 389:7 390:8 391:7 392:8 393:7 394:7 395:8 396:7 397:7 398:8 399:7 400:8 401:7 402:8 403:7 404:7 405:7 406:7 407:8 408:7 409:7 410:8 411:8 412:8 413:7 414:8 415:7 416:7 417:8 418:8 419:8 420:7 421:7 422:8 423:7 424:8 425:8 426:7 427:8 428:7 429:7 430:8 431:7 432:8 433:7 434:7 435:7 436:7 437:7 438:7 439:6 
0.08203125 12:407 13:259 14:322 15:364 16:3 17:3 18:3 19:4 72:493 73:322 74:309 75:382 76:300 77:451 78:393 79:407 80:381 81:398 82:374 83:432 84:371 85:389 86:376 87:401 88:3 89:3 90:3 91:3 92:3 93:3 94:3 95:4 96:3 97:3 98:3 99:4 100:3 101:4 102:3 103:4 312:702 313:407 314:361 315:485 316:348 317:362 318:473 319:450 320:431 321:421 322:604 323:403 324:438 325:405 326:459 327:419 328:338 329:401 330:385 331:408 332:395 333:530 334:436 335:501 336:380 337:441 338:452 339:421 340:331 341:410 342:411 343:399 344:373 345:439 346:423 347:392 348:410 349:344 350:451 351:394 352:470 353:468 354:469 355:457 356:446 357:427 358:438 359:372 360:428 361:481 362:366 363:400 364:457 365:454 366:335 367:404 368:403 369:416 370:425 371:465 372:289 373:430 374:455 375:396 376:4 377:3 378:3 379:3 380:3 381:3 382:3 383:3 384:3 385:3 386:4 387:3 388:3 389:3 390:3 391:3 392:3 393:3 394:3 395:3 396:3 397:3 398:3 399:4 400:3 401:3 402:3 403:3 404:3 405:3 406:3 407:3 408:3 409:3 410:3 411:3 412:3 413:3 414:3 415:3 416:3 417:3 418:3 419:3 420:3 421:3 422:3 423:3 424:3 425:3 426:3 427:3 428:3 429:3 430:3 431:3 432:3 433:3 434:3 435:3 436:3 437:3 438:3 439:3 
0.08203125 12:901 13:530 14:642 15:512 16:5 17:5 18:5 19:5 72:1230 73:586 74:611 75:586 76:698 77:611 78:548 79:654 80:534 81:607 82:616 83:667 84:647 85:658 86:622 87:676 88:6 89:5 90:5 91:5 92:5 93:5 94:5 95:5 96:5 97:5 98:5 99:5 100:5 101:5 102:5 103:5 312:1075 313:420 314:545 315:563 316:474 317:407 318:491 319:491 320:530 321:407 322:516 323:475 324:465 325:539 326:515 327:442 328:468 329:438 330:516 331:550 332:407 333:446 334:389 335:458 336:538 337:411 338:461 339:380 340:349 341:461 342:459 343:407 344:427 345:522 346:406 347:456 348:427 349:462 350:476 351:455 352:490 353:540 354:460 355:423 356:412 357:398 358:465 359:450 360:471 361:450 362:508 363:425 364:452 365:497 366:517 367:449 368:539 369:463 370:453 371:445 372:526 373:448 374:428 375:470 376:5 377:3 378:3 379:3 380:3 381:3 382:3 383:3 384:3 385:3 386:3 387:3 388:3 389:3 390:3 391:3 392:3 393:3 394:3 395:3 396:3 397:3 398:3 399:3 400:3 401:3 402:3 403:3 404:3 405:3 406:3 407:3 408:3 409:3 410:3 411:3 412:3 413:3 414:3 415:3 416:3 417:3 418:3 419:3 420:3 421:3 422:3 423:3 424:3 425:3 426:3 427:3 428:3 429:3 430:3 431:3 432:3 433:3 434:3 435:3 436:3 437:3 438:3 439:3 
0.08203125 12:560 13:405 14:344 15:472 16:4 17:4 18:4 19:5 72:819 73:453 74:663 75:573 76:475 77:531 78:622 79:620 80:614 81:574 82:605 83:575 84:604 85:571 86:575 87:583 88:5 89:4 90:5 91:5 92:4 93:5 94:5 95:5 96:5 97:5 98:5 99:5 100:5 101:5 102:5 103:5 312:1160 313:678 314:818 315:499 316:599 317:634 318:669 319:558 320:726 321:703 322:620 323:478 324:642 325:594 326:685 327:504 328:692 329:603 330:705 331:550 332:702 333:529 334:541 335:686 336:696 337:717 338:576 339:618 340:775 341:616 342:609 343:634 344:653 345:703 346:644 347:565 348:710 349:620 350:518 351:634 352:441 353:580 354:541 355:645 356:627 357:606 358:530 359:566 360:590 361:735 362:630 363:638 364:647 365:709 366:558 367:683 368:741 369:697 370:730 371:737 372:709 373:738 374:752 375:580 376:6 377:5 378:5 379:4 380:4 381:5 382:5 383:4 384:5 385:5 386:5 387:4 388:5 389:5 390:5 391:4 392:5 393:5 394:5 395:4 396:5 397:4 398:4 399:5 400:5 401:5 402:5 403:5 404:5 405:5 406:5 407:5 408:5 409:5 410:5 411:4 412:5 413:5 414:4 415:5 416:4 417:5 418:4 419:5 420:5 421:5 422:4 423:4 424:5 425:5 426:5 427:5 428:5 429:5 430:4 431:5 432:5 433:5 434:5 435:5 436:5 437:5 438:5 439:5 
0.08203125 12:502 13:374 14:336 15:394 16:3 17:3 18:3 19:4 72:686 73:439 74:467 75:467 76:439 77:480 78:439 79:486 80:377 81:376 82:427 83:519 84:479 85:443 86:458 87:514 88:4 89:3 90:4 91:4 92:4 93:4 94:4 95:4 96:3 97:4 98:4 99:4 100:4 101:4 102:4 103:4 312:964 313:532 314:385 315:471 316:433 317:542 318:428 319:485 320:579 321:584 322:594 323:437 324:521 325:504 326:600 327:456 328:481 329:601 330:521 331:514 332:446 333:495 334:438 335:575 336:540 337:491 338:457 339:605 340:549 341:492 342:598 343:554 344:588 345:469 346:491 347:516 348:534 349:530 350:565 351:455 352:562 353:478 354:491 355:589 356:466 357:520 358:464 359:567 360:577 361:465 362:513 363:547 364:537 365:533 366:508 367:509 368:524 369:437 370:476 371:491 372:568 373:497 374:493 375:467 376:5 377:4 378:3 379:4 380:3 381:4 382:3 383:4 384:4 385:4 386:4 387:3 388:4 389:4 390:4 391:4 392:4 393:4 394:4 395:4 396:4 397:4 398:3 399:4 400:4 401:4 402:4 403:4 404:4 405:4 406:4 407:4 408:4 409:4 410:4 411:4 412:4 413:4 414:4 415:4 416:4 417:4 418:4 419:4 420:4 421:4 422:4 423:4 424:4 425:4 426:4 427:4 428:4 429:4 430:4 431:4 432:4 433:3 434:4 435:4 436:4 437:4 438:4 439:4 
0.08203125 12:1398 13:949 14:939 15:1043 16:10 17:9 18:9 19:11 72:1844 73:1021 74:1115 75:1023 76:939 77:1265 78:1131 79:1156 80:1117 81:1099 82:1243 83:926 84:1062 85:1108 86:1132 87:1172 88:11 89:9 90:10 91:10 92:9 93:11 94:10 95:11 96:10 97:10 98:10 99:9 100:10 101:10 102:10 103:10 312:2255 313:970 314:1051 315:988 316:869 317:968 318:1031 319:842 320:921 321:1122 322:1491 323:923 324:1270 325:1203 326:1061 327:999 328:1046 329:1072 330:1124 331:1159 332:1357 333:814 334:989 335:1158 336:1165 337:1217 338:1070 339:1294 340:1096 341:1278 342:1125 343:905 344:1095 345:1019 346:1138 347:848 348:1093 349:935 350:1058 351:1086 352:998 353:1161 354:1166 355:1152 356:959 357:1153 358:1025 359:1269 360:1034 361:1174 362:1136 363:908 364:1022 365:1154 366:1127 367:1281 368:1114 369:1152 370:1068 371:1161 372:1233 373:1048 374:1232 375:998 376:12 377:8 378:9 379:8 380:8 381:8 382:9 383:8 384:8 385:9 386:10 387:8 388:10 389:9 390:9 391:8 392:9 393:9 394:9 395:9 396:10 397:8 398:9 399:9 400:9 401:9 402:9 403:10 404:9 405:10 406:9 407:8 408:9 409:9 410:9 411:8 412:9 413:8 414:9 415:9 416:9 417:9 418:9 419:9 420:8 421:9 422:9 423:10 424:9 425:9 426:9 427:8 428:9 429:9 430:9 431:10 432:9 433:9 434:9 435:9 436:10 437:9 438:10 439:9 
0.08203125 12:1005 13:678 14:700 15:749 16:6 17:7 18:7 19:7 72:1431 73:764 74:916 75:819 76:955 77:875 78:796 79:843 80:655 81:807 82:828 83:756 84:905 85:839 86:853 87:928 88:8 89:7 90:7 91:7 92:7 93:7 94:7 95:7 96:6 97:7 98:7 99:7 100:8 101:7 102:7 103:8 312:1880 313:828 314:1062 315:727 316:792 317:1117 318:878 319:742 320:873 321:762 322:912 323:876 324:922 325:820 326:881 327:798 328:759 329:843 330:828 331:747 332:695 333:954 334:839 335:813 336:1119 337:833 338:851 339:802 340:870 341:847 342:971 343:809 344:756 345:757 346:908 347:983 348:921 349:840 350:908 351:943 352:761 353:900 354:790 355:909 356:890 357:905 358:1001 359:893 360:917 361:859 362:957 363:838 364:1042 365:928 366:784 367:916 368:876 369:711 370:928 371:912 372:888 373:846 374:1037 375:934 376:9 377:6 378:7 379:6 380:6 381:7 382:7 383:6 384:7 385:6 386:7 387:7 388:7 389:7 390:7 391:6 392:6 393:7 394:7 395:6 396:6 397:7 398:7 399:7 400:8 401:7 402:7 403:6 404:7 405:7 406:7 407:6 408:6 409:6 410:7 411:7 412:7 413:7 414:7 415:7 416:6 417:7 418:6 419:7 420:7 421:7 422:7 423:7 424:7 425:7 426:7 427:7 428:7 429:7 430:6 431:7 432:7 433:6 434:7 435:7 436:7 437:7 438:7 439:7 
0.08203125 12:1307 13:973 14:868 15:902 16:9 17:9 18:9 19:10 72:1925 73:1038 74:1100 75:1237 76:1272 77:1272 78:1198 79:1082 80:1162 81:1267 82:1195 83:1104 84:1116 85:1192 86:1102 87:1118 88:11 89:9 90:10 91:11 92:10 93:11 94:11 95:10 96:10 97:11 98:10 99:10 100:10 101:10 102:10 103:10 312:2376 313:1301 314:1214 315:987 316:1042 317:1400 318:1243 319:1300 320:1189 321:1050 322:1045 323:1073 324:1228 325:1147 326:1035 327:1238 328:1096 329:1001 330:1209 331:1289 332:1182 333:1018 334:1145 335:1100 336:1098 337:1164 338:1096 339:1061 340:1278 341:1088 342:1318 343:1152 344:1184 345:1186 346:1296 347:1153 348:1506 349:1176 350:1002 351:1234 352:1192 353:1395 354:1069 355:1102 356:1261 357:1361 358:1287 359:1014 360:1290 361:1157 362:1172 363:1101 364:951 365:1297 366:1081 367:1453 368:1233 369:1132 370:1097 371:1062 372:1063 373:1234 374:1122 375:1101 376:12 377:9 378:9 379:8 380:8 381:10 382:9 383:10 384:9 385:9 386:8 387:9 388:9 389:9 390:8 391:9 392:9 393:8 394:9 395:9 396:9 397:8 398:9 399:9 400:9 401:9 402:9 403:9 404:9 405:9 406:10 407:9 408:9 409:9 410:9 411:9 412:10 413:9 414:8 415:9 416:9 417:10 418:9 419:9 420:9 421:10 422:9 423:8 424:9 425:9 426:9 427:9 428:8 429:9 430:9 431:10 432:9 433:9 434:9 435:9 436:9 437:9 438:9 439:9 
0.08203125 12:631 13:404 14:414 15:489 16:4 17:4 18:4 19:4 72:922 73:549 74:643 75:409 76:461 77:616 78:550 79:575 80:648 81:483 82:612 83:614 84:524 85:492 86:489 87:576 88:5 89:4 90:5 91:4 92:4 93:5 94:5 95:5 96:5 97:4 98:5 99:5 100:4 101:4 102:4 103:5 312:1123 313:493 314:719 315:591 316:476 317:582 318:593 319:497 320:497 321:474 322:452 323:667 324:482 325:632 326:693 327:536 328:559 329:573 330:509 331:614 332:587 333:696 334:521 335:502 336:549 337:612 338:496 339:541 340:510 341:570 342:564 343:690 344:569 345:520 346:549 347:534 348:625 349:614 350:467 351:487 352:671 353:585 354:439 355:564 356:587 357:520 358:552 359:579 360:540 361:577 362:559 363:477 364:531 365:546 366:509 367:579 368:596 369:546 370:580 371:611 372:682 373:539 374:561 375:519 376:5 377:4 378:4 379:4 380:4 381:4 382:4 383:4 384:4 385:4 386:3 387:4 388:4 389:4 390:4 391:4 392:4 393:4 394:4 395:4 396:4 397:4 398:4 399:4 400:4 401:4 402:4 403:4 404:4 405:4 406:4 407:4 408:4 409:4 410:4 411:4 412:4 413:4 414:4 415:4 416:4 417:4 418:3 419:4 420:4 421:4 422:4 423:4 424:4 425:4 426:4 427:4 428:4 429:4 430:4 431:4 432:4 433:4 434:4 435:4 436:4 437:4 438:4 439:4 
0.08203125 12:541 13:418 14:334 15:652 16:4 17:5 18:4 19:7 72:869 73:544 74:655 75:668 76:676 77:831 78:864 79:792 80:614 81:867 82:971 83:659 84:764 85:818 86:609 87:753 88:6 89:5 90:6 91:7 92:6 93:7 94:8 95:7 96:6 97:8 98:8 99:7 100:7 101:7 102:7 103:7 312:1375 313:833 314:887 315:947 316:960 317:1222 318:927 319:1022 320:931 321:789 322:1363 323:905 324:1085 325:1073 326:868 327:669 328:792 329:1274 330:964 331:868 332:831 333:818 334:951 335:996 336:938 337:910 338:1026 339:898 340:911 341:1147 342:1144 343:854 344:1013 345:996 346:1008 347:924 348:1104 349:1027 350:860 351:878 352:976 353:928 354:1030 355:998 356:894 357:726 358:1080 359:1214 360:1040 361:844 362:1037 363:1045 364:987 365:896 366:917 367:1010 368:1010 369:953 370:732 371:1003 372:866 373:809 374:855 375:1027 376:9 377:7 378:7 379:7 380:7 381:8 382:8 383:8 384:7 385:7 386:9 387:7 388:8 389:8 390:7 391:6 392:7 393:9 394:8 395:8 396:7 397:7 398:8 399:8 400:8 401:8 402:8 403:7 404:8 405:8 406:8 407:7 408:8 409:8 410:8 411:8 412:8 413:8 414:7 415:7 416:8 417:8 418:8 419:8 420:8 421:7 422:8 423:9 424:8 425:7 426:8 427:8 428:8 429:8 430:8 431:8 432:8 433:8 434:7 435:8 436:7 437:7 438:7 439:8 
0.08203125 12:370 13:243 14:254 15:327 16:3 17:3 18:3 19:4 72:603 73:346 74:420 75:361 76:414 77:414 78:424 79:425 80:424 81:451 82:449 83:417 84:440 85:464 86:395 87:485 88:4 89:4 90:4 91:4 92:4 93:4 94:5 95:5 96:4 97:5 98:5 99:4 100:5 101:5 102:4 103:5 312:1017 313:489 314:598 315:463 316:526 317:588 318:565 319:737 320:632 321:602 322:792 323:607 324:607 325:697 326:531 327:613 328:537 329:597 330:627 331:511 332:625 333:485 334:574 335:624 336:669 337:625 338:621 339:572 340:640 341:633 342:639 343:514 344:614 345:542 346:635 347:534 348:593 349:488 350:529 351:610 352:608 353:593 354:491 355:672 356:600 357:580 358:490 359:515 360:565 361:570 362:614 363:620 364:654 365:729 366:659 367:594 368:616 369:549 370:529 371:684 372:486 373:521 374:498 375:555 376:6 377:4 378:5 379:5 380:5 381:5 382:5 383:6 384:5 385:5 386:6 387:5 388:5 389:6 390:5 391:5 392:5 393:5 394:5 395:5 396:5 397:5 398:5 399:5 400:6 401:5 402:5 403:5 404:5 405:6 406:6 407:5 408:5 409:5 410:5 411:5 412:5 413:5 414:5 415:5 416:5 417:5 418:5 419:6 420:5 421:5 422:5 423:5 424:5 425:5 426:5 427:5 428:6 429:6 430:5 431:5 432:5 433:5 434:5 435:6 436:5 437:5 438:5 439:5 
0.08203125 12:1504 13:842 14:959 15:1021 16:10 17:9 18:10 19:10 72:2088 73:963 74:1186 75:1184 76:1067 77:1386 78:1116 79:1265 80:941 81:1193 82:1267 83:1188 84:1134 85:1166 86:1185 87:1090 88:12 89:9 90:10 91:11 92:10 93:11 94:10 95:11 96:9 97:11 98:11 99:10 100:10 101:10 102:11 103:10 312:2509 313:1152 314:1129 315:1500 316:1192 317:1374 318:1066 319:1181 320:1170 321:1069 322:1398 323:1209 324:1150 325:1143 326:1157 327:978 328:1278 329:1237 330:1223 331:1391 332:1436 333:744 334:917 335:1350 336:1218 337:1405 338:1168 339:1234 340:1142 341:1146 342:1368 343:1413 344:1279 345:1314 346:1295 347:1099 348:1434 349:1180 350:1236 351:1147 352:1706 353:1175 354:1262 355:1361 356:1256 357:1423 358:1169 359:1378 360:1242 361:1194 362:1031 363:1168 364:1283 365:1280 366:1030 367:1414 368:1135 369:1148 370:1470 371:1220 372:1244 373:1143 374:1300 375:1255 376:13 377:9 378:9 379:11 380:9 381:10 382:9 383:9 384:9 385:9 386:10 387:9 388:9 389:9 390:9 391:8 392:10 393:9 394:10 395:10 396:10 397:7 398:8 399:10 400:10 401:10 402:9 403:10 404:9 405:9 406:10 407:10 408:10 409:10 410:10 411:9 412:10 413:9 414:10 415:9 416:11 417:9 418:10 419:10 420:10 421:10 422:9 423:10 424:10 425:9 426:9 427:9 428:10 429:10 430:9 431:10 432:9 433:9 434:10 435:10 436:10 437:9 438:10 439:10 
0.08203125 12:940 13:376 14:190 15:407 16:4 17:3 18:2 19:3 72:534 73:215 74:176 75:289 76:296 77:372 78:280 79:363 80:186 81:228 82:374 83:312 84:311 85:313 86:270 87:325 88:3 89:2 90:2 91:2 92:2 93:3 94:2 95:3 96:2 97:2 98:3 99:2 100:2 101:2 102:2 103:3 312:495 313:263 314:158 315:363 316:293 317:401 318:281 319:254 320:161 321:300 322:375 323:172 324:352 325:290 326:133 327:286 328:267 329:436 330:320 331:295 332:357 333:329 334:249 335:305 336:315 337:262 338:282 339:252 340:318 341:263 342:260 343:372 344:163 345:274 346:296 347:181 348:353 349:208 350:195 351:335 352:317 353:180 354:200 355:293 356:310 357:298 358:301 359:232 360:299 361:307 362:315 363:299 364:300 365:303 366:296 367:269 368:277 369:234 370:278 371:308 372:284 373:329 374:267 375:280 376:2 377:2 378:1 379:2 380:2 381:2 382:2 383:2 384:1 385:2 386:2 387:1 388:2 389:2 390:1 391:2 392:2 393:2 394:2 395:2 396:2 397:2 398:2 399:2 400:2 401:2 402:2 403:2 404:2 405:2 406:2 407:2 408:1 409:2 410:2 411:1 412:2 413:2 414:2 415:2 416:2 417:1 418:2 419:2 420:2 421:2 422:2 423:2 424:2 425:2 426:2 427:2 428:2 429:2 430:2 431:2 432:2 433:2 434:2 435:2 436:2 437:2 438:2 439:2 
0.08203125 12:1189 13:677 14:841 15:834 16:7 17:7 18:8 19:8 72:1681 73:911 74:783 75:1043 76:884 77:1064 78:921 79:899 80:925 81:913 82:964 83:890 84:884 85:856 86:899 87:961 88:9 89:7 90:7 91:8 92:7 93:8 94:8 95:8 96:8 97:8 98:8 99:8 100:8 101:8 102:8 103:8 312:1873 313:832 314:828 315:900 316:816 317:918 318:940 319:766 320:867 321:849 322:919 323:961 324:799 325:877 326:742 327:890 328:1011 329:1195 330:956 331:884 332:778 333:777 334:987 335:720 336:819 337:902 338:950 339:642 340:904 341:793 342:861 343:930 344:906 345:1021 346:879 347:852 348:822 349:788 350:881 351:929 352:980 353:825 354:880 355:915 356:805 357:868 358:958 359:759 360:914 361:633 362:829 363:930 364:975 365:883 366:821 367:951 368:765 369:885 370:891 371:771 372:800 373:693 374:895 375:990 376:9 377:6 378:6 379:7 380:6 381:7 382:7 383:6 384:6 385:6 386:7 387:7 388:6 389:7 390:6 391:7 392:7 393:8 394:7 395:7 396:6 397:6 398:7 399:6 400:6 401:7 402:7 403:6 404:7 405:6 406:6 407:7 408:7 409:7 410:6 411:6 412:6 413:6 414:7 415:7 416:7 417:6 418:7 419:7 420:6 421:6 422:7 423:6 424:7 425:5 426:6 427:7 428:7 429:7 430:6 431:7 432:6 433:7 434:7 435:6 436:6 437:6 438:7 439:7 
0.08203125 12:940 13:688 14:723 15:705 16:6 17:7 18:7 19:8 72:1314 73:700 74:673 75:695 76:680 77:777 78:778 79:892 80:725 81:826 82:1070 83:790 84:826 85:811 86:901 87:812 88:8 89:7 90:7 91:7 92:7 93:8 94:8 95:8 96:8 97:8 98:8 99:8 100:8 101:8 102:8 103:8 312:1976 313:772 314:852 315:1185 316:908 317:1110 318:1095 319:858 320:1014 321:1130 322:1052 323:990 324:966 325:1004 326:1016 327:866 328:968 329:1015 330:1048 331:993 332:865 333:1004 334:1048 335:837 336:992 337:774 338:1145 339:1116 340:1000 341:868 342:1032 343:1124 344:1033 345:980 346:925 347:986 348:977 349:938 350:1011 351:838 352:909 353:911 354:827 355:956 356:1038 357:1056 358:847 359:886 360:907 361:996 362:881 363:923 364:1028 365:993 366:955 367:1047 368:939 369:974 370:829 371:996 372:1047 373:968 374:996 375:933 376:10 377:7 378:8 379:9 380:8 381:9 382:9 383:8 384:8 385:9 386:8 387:8 388:8 389:8 390:8 391:8 392:8 393:8 394:9 395:8 396:8 397:8 398:9 399:8 400:8 401:7 402:9 403:9 404:8 405:8 406:9 407:9 408:9 409:8 410:8 411:8 412:8 413:8 414:8 415:8 416:8 417:8 418:8 419:8 420:9 421:9 422:8 423:8 424:8 425:8 426:8 427:8 428:9 429:8 430:8 431:9 432:8 433:8 434:8 435:8 436:9 437:8 438:8 439:8 
0.08203125 12:1624 13:1018 14:1029 15:1025 16:10 17:9 18:9 19:10 72:2157 73:1040 74:1177 75:1201 76:1182 77:1126 78:1191 79:1162 80:1166 81:1153 82:1077 83:1210 84:1112 85:1185 86:1083 87:1064 88:12 89:9 90:10 91:10 92:9 93:9 94:10 95:10 96:9 97:9 98:9 99:10 100:9 101:10 102:9 103:9 312:1991 313:821 314:1018 315:751 316:890 317:864 318:910 319:779 320:913 321:829 322:799 323:760 324:842 325:997 326:838 327:730 328:1022 329:878 330:808 331:789 332:823 333:952 334:756 335:821 336:689 337:851 338:893 339:729 340:956 341:732 342:935 343:845 344:807 345:948 346:800 347:741 348:981 349:887 350:770 351:800 352:1062 353:860 354:890 355:862 356:774 357:836 358:917 359:756 360:878 361:915 362:805 363:879 364:930 365:872 366:671 367:902 368:817 369:1003 370:889 371:661 372:779 373:945 374:903 375:900 376:9 377:6 378:7 379:6 380:6 381:6 382:6 383:6 384:6 385:6 386:6 387:6 388:6 389:7 390:6 391:5 392:7 393:6 394:6 395:6 396:6 397:6 398:6 399:6 400:5 401:6 402:6 403:5 404:6 405:5 406:6 407:6 408:6 409:6 410:6 411:6 412:6 413:6 414:6 415:6 416:7 417:6 418:6 419:6 420:6 421:6 422:6 423:6 424:6 425:6 426:6 427:6 428:6 429:6 430:5 431:6 432:6 433:7 434:6 435:5 436:6 437:6 438:6 439:6 
0.08203125 12:282 13:109 14:186 15:269 16:2 17:1 18:2 19:3 72:446 73:346 74:330 75:352 76:306 77:331 78:344 79:345 80:295 81:379 82:377 83:357 84:378 85:359 86:306 87:331 88:3 89:3 90:3 91:3 92:3 93:3 94:3 95:3 96:2 97:3 98:3 99:3 100:3 101:3 102:3 103:3 312:729 313:459 314:510 315:467 316:422 317:541 318:417 319:391 320:410 321:437 322:619 323:498 324:405 325:443 326:439 327:385 328:376 329:520 330:487 331:438 332:450 333:376 334:434 335:371 336:402 337:397 338:403 339:420 340:458 341:466 342:397 343:479 344:447 345:468 346:562 347:416 348:528 349:399 350:340 351:452 352:475 353:430 354:385 355:463 356:475 357:404 358:403 359:424 360:420 361:531 362:394 363:465 364:458 365:422 366:453 367:428 368:539 369:459 370:403 371:465 372:370 373:497 374:472 375:355 376:4 377:3 378:3 379:3 380:3 381:4 382:3 383:3 384:3 385:3 386:4 387:3 388:3 389:3 390:3 391:3 392:3 393:3 394:4 395:3 396:3 397:3 398:3 399:3 400:3 401:3 402:3 403:3 404:3 405:3 406:3 407:3 408:3 409:3 410:4 411:3 412:4 413:3 414:3 415:3 416:3 417:3 418:3 419:3 420:3 421:3 422:3 423:3 424:3 425:4 426:3 427:3 428:3 429:3 430:3 431:3 432:4 433:3 434:3 435:3 436:3 437:4 438:3 439:3 
0.08203125 12:1145 13:817 14:601 15:1001 16:8 17:9 18:8 19:11 72:1567 73:857 74:940 75:1032 76:767 77:1284 78:1111 79:1135 80:940 81:1193 82:1186 83:1170 84:1046 85:1051 86:1072 87:1182 88:10 89:9 90:9 91:11 92:9 93:11 94:11 95:11 96:10 97:12 98:11 99:11 100:11 101:11 102:11 103:12 312:2232 313:1227 314:1207 315:921 316:1216 317:1619 318:1542 319:1286 320:1270 321:1197 322:1545 323:1594 324:1181 325:1272 326:1268 327:1186 328:1262 329:1390 330:1240 331:1384 332:1410 333:1163 334:1312 335:1421 336:1370 337:1249 338:1477 339:1142 340:1284 341:1300 342:1268 343:1312 344:1089 345:1208 346:1020 347:1216 348:966 349:1415 350:1232 351:1359 352:1277 353:1086 354:873 355:1205 356:1290 357:1308 358:1262 359:1316 360:1253 361:1283 362:1347 363:1601 364:1491 365:1231 366:1297 367:1148 368:1331 369:1271 370:1388 371:1198 372:1342 373:1290 374:1507 375:1353 376:13 377:10 378:10 379:9 380:10 381:12 382:12 383:11 384:11 385:11 386:11 387:12 388:11 389:11 390:11 391:11 392:11 393:11 394:11 395:12 396:12 397:10 398:12 399:12 400:12 401:11 402:12 403:11 404:11 405:11 406:11 407:11 408:10 409:11 410:10 411:11 412:10 413:12 414:11 415:12 416:11 417:10 418:9 419:11 420:11 421:11 422:11 423:12 424:11 425:11 426:12 427:12 428:12 429:11 430:11 431:11 432:12 433:11 434:12 435:11 436:12 437:11 438:12 439:12 
0.08203125 12:1452 13:988 14:946 15:1018 16:10 17:10 18:10 19:11 72:1814 73:956 74:1129 75:1119 76:1076 77:1187 78:1158 79:1163 80:1266 81:1161 82:1253 83:1147 84:1127 85:1063 86:1086 87:1272 88:11 89:9 90:10 91:11 92:10 93:11 94:11 95:11 96:11 97:11 98:11 99:11 100:11 101:11 102:11 103:11 312:2430 313:1006 314:1611 315:1318 316:1105 317:1685 318:1238 319:1532 320:1359 321:1168 322:1114 323:1353 324:1301 325:1222 326:1223 327:1210 328:1253 329:1527 330:1163 331:1276 332:786 333:1290 334:1332 335:1288 336:1244 337:1301 338:1297 339:1472 340:1601 341:1422 342:1216 343:1322 344:1255 345:1194 346:965 347:1301 348:1315 349:1291 350:1237 351:1290 352:1257 353:1405 354:1115 355:1220 356:1239 357:1258 358:1005 359:1150 360:1161 361:1247 362:1511 363:1195 364:1333 365:1170 366:1154 367:1133 368:1381 369:1396 370:1163 371:1258 372:1200 373:1094 374:1259 375:1379 376:13 377:9 378:11 379:11 380:9 381:11 382:11 383:12 384:11 385:10 386:9 387:11 388:11 389:10 390:10 391:10 392:10 393:11 394:10 395:11 396:8 397:11 398:11 399:11 400:11 401:11 402:11 403:11 404:12 405:11 406:10 407:11 408:11 409:10 410:9 411:11 412:11 413:11 414:11 415:11 416:11 417:11 418:10 419:10 420:11 421:11 422:9 423:10 424:10 425:11 426:11 427:10 428:11 429:10 430:10 431:10 432:11 433:11 434:10 435:11 436:10 437:10 438:11 439:11 
0.08203125 12:1446 13:859 14:839 15:1082 16:9 17:9 18:9 19:10 72:1864 73:867 74:1147 75:871 76:1036 77:1201 78:1086 79:1102 80:1099 81:1046 82:1182 83:1097 84:1176 85:1155 86:1054 87:905 88:11 89:8 90:10 91:9 92:9 93:10 94:10 95:10 96:10 97:9 98:10 99:10 100:10 101:10 102:9 103:9 312:2374 313:1146 314:1156 315:1051 316:1048 317:1287 318:970 319:1060 320:1065 321:916 322:1366 323:1097 324:1176 325:1063 326:1141 327:1039 328:1091 329:1260 330:1160 331:1137 332:1385 333:868 334:1052 335:1203 336:1038 337:975 338:1069 339:1025 340:1200 341:1191 342:1082 343:1045 344:840 345:1027 346:1106 347:991 348:953 349:1085 350:1095 351:1185 352:1084 353:976 354:998 355:998 356:1069 357:1188 358:1006 359:962 360:960 361:1178 362:1102 363:1090 364:1038 365:999 366:908 367:932 368:1063 369:997 370:999 371:991 372:1170 373:1185 374:1150 375:1045 376:12 377:8 378:9 379:8 380:8 381:9 382:8 383:8 384:8 385:8 386:9 387:8 388:9 389:8 390:9 391:8 392:8 393:9 394:9 395:9 396:9 397:7 398:8 399:9 400:8 401:8 402:8 403:8 404:9 405:9 406:8 407:8 408:7 409:8 410:8 411:8 412:8 413:8 414:8 415:9 416:8 417:8 418:8 419:8 420:8 421:9 422:8 423:8 424:8 425:9 426:8 427:8 428:8 429:8 430:8 431:8 432:8 433:8 434:8 435:8 436:9 437:9 438:9 439:8 
0.08203125 12:339 13:466 14:385 15:371 16:2 17:3 18:3 19:4 72:502 73:390 74:425 75:375 76:398 77:426 78:399 79:456 80:357 81:422 82:385 83:433 84:466 85:454 86:389 87:385 88:3 89:3 90:4 91:4 92:3 93:4 94:4 95:4 96:3 97:4 98:4 99:4 100:4 101:4 102:4 103:4 312:791 313:351 314:497 315:322 316:397 317:642 318:559 319:488 320:457 321:500 322:641 323:352 324:515 325:546 326:474 327:426 328:413 329:646 330:539 331:585 332:437 333:538 334:509 335:601 336:502 337:523 338:494 339:560 340:540 341:602 342:577 343:564 344:529 345:548 346:459 347:601 348:597 349:582 350:647 351:577 352:485 353:491 354:468 355:540 356:523 357:586 358:609 359:478 360:570 361:506 362:582 363:530 364:549 365:594 366:567 367:590 368:557 369:532 370:731 371:566 372:567 373:599 374:557 375:598 376:5 377:3 378:4 379:3 380:4 381:5 382:5 383:4 384:4 385:4 386:5 387:4 388:4 389:4 390:4 391:4 392:4 393:5 394:5 395:5 396:4 397:5 398:5 399:5 400:5 401:5 402:4 403:5 404:5 405:5 406:5 407:5 408:4 409:5 410:4 411:5 412:5 413:5 414:5 415:5 416:4 417:4 418:4 419:5 420:5 421:5 422:5 423:4 424:5 425:4 426:5 427:5 428:5 429:5 430:5 431:5 432:5 433:5 434:5 435:5 436:5 437:5 438:5 439:5 
0.08203125 12:129 13:127 14:126 15:171 16:1 17:1 18:1 19:2 72:206 73:165 74:197 75:167 76:178 77:177 78:175 79:218 80:186 81:214 82:247 83:222 84:225 85:203 86:233 87:217 88:1 89:1 90:2 91:2 92:1 93:2 94:2 95:2 96:2 97:2 98:2 99:2 100:2 101:2 102:2 103:2 312:349 313:228 314:235 315:283 316:247 317:320 318:258 319:283 320:230 321:185 322:256 323:184 324:282 325:338 326:286 327:277 328:226 329:307 330:287 331:343 332:301 333:324 334:292 335:295 336:295 337:259 338:265 339:293 340:315 341:302 342:324 343:300 344:267 345:272 346:258 347:227 348:276 349:292 350:255 351:283 352:307 353:363 354:235 355:259 356:303 357:271 358:275 359:260 360:303 361:298 362:297 363:260 364:292 365:324 366:244 367:253 368:304 369:258 370:295 371:287 372:248 373:254 374:275 375:314 376:2 377:2 378:2 379:2 380:2 381:2 382:2 383:2 384:2 385:2 386:2 387:2 388:2 389:3 390:2 391:2 392:2 393:2 394:2 395:3 396:2 397:2 398:2 399:2 400:2 401:2 402:2 403:2 404:2 405:2 406:2 407:2 408:2 409:2 410:2 411:2 412:2 413:2 414:2 415:2 416:2 417:2 418:2 419:2 420:2 421:2 422:2 423:2 424:2 425:2 426:2 427:2 428:2 429:2 430:2 431:2 432:2 433:2 434:2 435:2 436:2 437:2 438:2 439:2 
0.08203125 12:438 13:379 14:357 15:416 16:3 17:3 18:3 19:4 72:658 73:367 74:451 75:449 76:448 77:480 78:394 79:455 80:420 81:451 82:314 83:439 84:465 85:480 86:495 87:477 88:4 89:3 90:4 91:4 92:4 93:4 94:4 95:4 96:4 97:4 98:3 99:4 100:4 101:4 102:4 103:4 312:902 313:450 314:496 315:426 316:479 317:367 318:488 319:430 320:483 321:576 322:386 323:595 324:507 325:582 326:501 327:444 328:567 329:441 330:386 331:627 332:550 333:525 334:544 335:435 336:485 337:469 338:540 339:476 340:547 341:617 342:570 343:416 344:483 345:457 346:393 347:481 348:650 349:458 350:521 351:473 352:452 353:434 354:596 355:471 356:487 357:540 358:470 359:555 360:463 361:417 362:509 363:485 364:494 365:427 366:487 367:513 368:533 369:531 370:565 371:534 372:448 373:507 374:492 375:466 376:5 377:3 378:4 379:3 380:3 381:3 382:4 383:3 384:4 385:4 386:3 387:4 388:4 389:4 390:4 391:3 392:4 393:3 394:3 395:4 396:4 397:4 398:4 399:3 400:4 401:4 402:4 403:4 404:4 405:4 406:4 407:3 408:4 409:4 410:3 411:4 412:4 413:4 414:4 415:4 416:3 417:3 418:4 419:4 420:4 421:4 422:4 423:4 424:4 425:3 426:4 427:4 428:4 429:3 430:4 431:4 432:4 433:4 434:4 435:4 436:3 437:4 438:4 439:4 
0.08203125 12:720 13:410 14:432 15:591 16:5 17:5 18:5 19:6 72:983 73:575 74:675 75:577 76:559 77:660 78:572 79:526 80:683 81:622 82:606 83:571 84:586 85:626 86:626 87:638 88:6 89:5 90:5 91:5 92:5 93:6 94:5 95:5 96:6 97:6 98:5 99:5 100:5 101:6 102:6 103:6 312:1365 313:748 314:644 315:755 316:629 317:809 318:605 319:613 320:672 321:701 322:966 323:625 324:751 325:723 326:765 327:633 328:688 329:735 330:684 331:619 332:745 333:595 334:777 335:700 336:732 337:539 338:514 339:695 340:649 341:768 342:739 343:674 344:725 345:711 346:775 347:609 348:696 349:611 350:661 351:620 352:604 353:768 354:664 355:707 356:752 357:630 358:684 359:768 360:693 361:620 362:643 363:781 364:731 365:656 366:690 367:658 368:632 369:671 370:724 371:729 372:705 373:670 374:741 375:710 376:7 377:5 378:5 379:6 380:5 381:6 382:5 383:5 384:5 385:5 386:6 387:5 388:6 389:5 390:6 391:5 392:5 393:5 394:5 395:5 396:6 397:5 398:6 399:5 400:6 401:5 402:5 403:5 404:5 405:6 406:6 407:5 408:5 409:5 410:6 411:5 412:5 413:5 414:5 415:5 416:5 417:6 418:5 419:5 420:6 421:5 422:5 423:6 424:5 425:5 426:5 427:6 428:5 429:5 430:5 431:5 432:5 433:5 434:5 435:6 436:5 437:5 438:6 439:6 
0.08203125 12:1536 13:793 14:914 15:1125 16:10 17:9 18:10 19:12 72:1991 73:1047 74:1129 75:982 76:1012 77:1468 78:1079 79:1148 80:1219 81:1229 82:1061 83:1063 84:1258 85:1263 86:1120 87:1317 88:12 89:10 90:10 91:10 92:10 93:12 94:11 95:12 96:11 97:12 98:11 99:11 100:12 101:12 102:11 103:12 312:2619 313:1340 314:1531 315:991 316:1227 317:1325 318:1372 319:921 320:1438 321:1166 322:1564 323:1475 324:1247 325:1305 326:1168 327:1343 328:1164 329:1500 330:1432 331:1140 332:1483 333:1375 334:1408 335:1357 336:1449 337:1453 338:1369 339:1540 340:1161 341:1228 342:1463 343:1330 344:1438 345:1532 346:1477 347:1518 348:1173 349:1357 350:1297 351:1286 352:1321 353:1335 354:1240 355:1352 356:1188 357:1221 358:1037 359:1418 360:1291 361:1495 362:1242 363:1252 364:1169 365:1298 366:1201 367:1333 368:1428 369:1170 370:1343 371:1239 372:1320 373:1315 374:1380 375:1254 376:14 377:10 378:11 379:9 380:10 381:11 382:11 383:9 384:11 385:10 386:11 387:12 388:11 389:11 390:11 391:11 392:10 393:12 394:12 395:10 396:12 397:11 398:12 399:11 400:12 401:12 402:11 403:12 404:10 405:11 406:12 407:11 408:12 409:12 410:11 411:12 412:11 413:11 414:11 415:11 416:11 417:11 418:11 419:11 420:11 421:11 422:10 423:11 424:11 425:12 426:11 427:11 428:11 429:11 430:11 431:11 432:11 433:11 434:11 435:11 436:11 437:11 438:11 439:11 
0.08203125 12:801 13:602 14:346 15:520 16:5 17:5 18:4 19:5 72:1164 73:580 74:695 75:703 76:568 77:861 78:694 79:566 80:623 81:718 82:831 83:631 84:717 85:611 86:681 87:683 88:6 89:5 90:5 91:6 92:5 93:6 94:6 95:5 96:5 97:6 98:6 99:5 100:6 101:5 102:5 103:5 312:1238 313:524 314:590 315:529 316:612 317:600 318:587 319:560 320:657 321:563 322:572 323:515 324:547 325:568 326:630 327:616 328:588 329:512 330:512 331:567 332:540 333:482 334:447 335:553 336:576 337:645 338:565 339:628 340:527 341:432 342:607 343:627 344:487 345:587 346:607 347:531 348:551 349:619 350:584 351:564 352:559 353:636 354:594 355:649 356:504 357:512 358:531 359:455 360:504 361:482 362:609 363:529 364:522 365:595 366:558 367:664 368:506 369:508 370:634 371:584 372:531 373:538 374:587 375:603 376:6 377:4 378:4 379:4 380:4 381:4 382:4 383:4 384:4 385:4 386:4 387:4 388:4 389:4 390:4 391:4 392:4 393:4 394:4 395:4 396:4 397:4 398:3 399:4 400:4 401:4 402:4 403:4 404:4 405:3 406:4 407:4 408:4 409:4 410:4 411:4 412:4 413:4 414:4 415:4 416:4 417:4 418:4 419:4 420:4 421:4 422:4 423:3 424:4 425:4 426:4 427:4 428:4 429:4 430:4 431:4 432:4 433:4 434:4 435:4 436:4 437:4 438:4 439:4 
0.08203125 12:659 13:599 14:556 15:624 16:5 17:6 18:6 19:7 72:774 73:469 74:711 75:583 76:606 77:617 78:660 79:679 80:705 81:630 82:673 83:581 84:692 85:688 86:629 87:686 88:5 89:5 90:6 91:6 92:6 93:6 94:6 95:7 96:6 97:6 98:6 99:6 100:6 101:6 102:6 103:6 312:1013 313:459 314:699 315:381 316:633 317:918 318:556 319:469 320:677 321:651 322:789 323:846 324:735 325:753 326:522 327:419 328:666 329:792 330:610 331:670 332:748 333:666 334:616 335:670 336:622 337:599 338:651 339:742 340:651 341:735 342:718 343:779 344:545 345:675 346:617 347:641 348:668 349:702 350:624 351:681 352:698 353:690 354:696 355:673 356:707 357:617 358:667 359:763 360:717 361:750 362:667 363:738 364:661 365:629 366:725 367:569 368:650 369:640 370:629 371:674 372:781 373:709 374:752 375:623 376:6 377:4 378:5 379:4 380:5 381:6 382:5 383:5 384:5 385:6 386:6 387:6 388:6 389:6 390:5 391:5 392:6 393:6 394:6 395:6 396:6 397:6 398:6 399:6 400:6 401:6 402:6 403:6 404:6 405:6 406:6 407:6 408:5 409:6 410:5 411:6 412:6 413:6 414:6 415:6 416:6 417:6 418:6 419:6 420:6 421:6 422:6 423:6 424:6 425:6 426:6 427:6 428:6 429:6 430:6 431:5 432:6 433:6 434:6 435:6 436:6 437:6 438:6 439:6 
0.08203125 12:722 13:585 14:669 15:651 16:5 17:6 18:6 19:7 72:1025 73:648 74:715 75:790 76:686 77:814 78:757 79:539 80:864 81:812 82:1052 83:794 84:752 85:805 86:758 87:530 88:6 89:6 90:6 91:7 92:6 93:7 94:7 95:6 96:7 97:7 98:7 99:7 100:7 101:7 102:7 103:6 312:1441 313:796 314:790 315:1225 316:763 317:775 318:643 319:849 320:684 321:816 322:992 323:610 324:800 325:806 326:869 327:506 328:789 329:935 330:853 331:905 332:1010 333:621 334:981 335:932 336:824 337:802 338:942 339:904 340:846 341:739 342:874 343:875 344:752 345:925 346:852 347:858 348:741 349:878 350:839 351:847 352:944 353:832 354:804 355:979 356:888 357:869 358:754 359:831 360:914 361:820 362:842 363:776 364:1072 365:869 366:852 367:686 368:842 369:822 370:907 371:842 372:779 373:831 374:959 375:799 376:8 377:6 378:6 379:8 380:6 381:6 382:6 383:7 384:6 385:7 386:7 387:6 388:7 389:7 390:7 391:5 392:6 393:7 394:7 395:7 396:7 397:6 398:7 399:7 400:7 401:7 402:7 403:7 404:7 405:6 406:7 407:7 408:6 409:7 410:7 411:7 412:6 413:7 414:7 415:7 416:7 417:7 418:7 419:7 420:7 421:7 422:6 423:7 424:7 425:7 426:7 427:7 428:8 429:7 430:7 431:6 432:7 433:7 434:7 435:7 436:7 437:7 438:7 439:7 
0.08203125 12:1425 13:682 14:787 15:812 16:8 17:6 18:7 19:7 72:1811 73:806 74:727 75:732 76:855 77:957 78:892 79:948 80:853 81:889 82:896 83:857 84:884 85:761 86:847 87:913 88:9 89:6 90:6 91:6 92:7 93:7 94:7 95:7 96:7 97:7 98:7 99:7 100:7 101:6 102:7 103:7 312:1442 313:603 314:642 315:551 316:515 317:522 318:579 319:603 320:558 321:619 322:869 323:486 324:479 325:640 326:531 327:556 328:457 329:562 330:601 331:599 332:449 333:528 334:469 335:645 336:476 337:592 338:585 339:515 340:577 341:600 342:606 343:447 344:540 345:467 346:616 347:508 348:512 349:548 350:504 351:588 352:517 353:507 354:566 355:516 356:578 357:633 358:622 359:546 360:495 361:554 362:438 363:533 364:587 365:538 366:662 367:564 368:591 369:569 370:612 371:596 372:536 373:564 374:643 375:577 376:6 377:4 378:4 379:4 380:4 381:4 382:4 383:4 384:4 385:4 386:5 387:3 388:3 389:4 390:4 391:4 392:3 393:4 394:4 395:4 396:3 397:4 398:3 399:4 400:3 401:4 402:4 403:4 404:4 405:4 406:4 407:3 408:4 409:3 410:4 411:4 412:4 413:4 414:4 415:4 416:4 417:4 418:4 419:4 420:4 421:4 422:4 423:4 424:4 425:4 426:3 427:4 428:4 429:4 430:4 431:4 432:4 433:4 434:4 435:4 436:4 437:4 438:4 439:4 
0.08203125 12:977 13:674 14:773 15:715 16:6 17:7 18:7 19:7 72:1349 73:696 74:796 75:717 76:776 77:824 78:890 79:803 80:851 81:867 82:797 83:872 84:783 85:883 86:808 87:642 88:8 89:6 90:7 91:7 92:7 93:7 94:8 95:7 96:7 97:7 98:7 99:7 100:7 101:7 102:7 103:6 312:1852 313:752 314:975 315:939 316:883 317:817 318:953 319:918 320:951 321:713 322:1085 323:993 324:952 325:917 326:840 327:984 328:925 329:998 330:900 331:1009 332:781 333:606 334:839 335:939 336:873 337:790 338:855 339:974 340:874 341:930 342:811 343:946 344:1006 345:881 346:963 347:897 348:847 349:801 350:883 351:922 352:1063 353:793 354:722 355:1045 356:884 357:876 358:1007 359:1011 360:973 361:758 362:1011 363:960 364:770 365:980 366:959 367:735 368:903 369:929 370:862 371:877 372:902 373:834 374:853 375:1047 376:9 377:6 378:7 379:7 380:7 381:7 382:7 383:7 384:7 385:6 386:8 387:7 388:7 389:7 390:7 391:7 392:7 393:7 394:7 395:7 396:6 397:6 398:7 399:7 400:7 401:7 402:7 403:7 404:7 405:7 406:7 407:7 408:7 409:7 410:7 411:7 412:7 413:7 414:7 415:7 416:8 417:7 418:6 419:7 420:7 421:7 422:7 423:7 424:7 425:6 426:7 427:7 428:6 429:7 430:7 431:6 432:7 433:7 434:7 435:7 436:7 437:7 438:7 439:7 
0.08203125 12:318 13:246 14:289 15:256 16:2 17:2 18:3 19:3 72:495 73:264 74:370 75:340 76:358 77:382 78:398 79:397 80:386 81:367 82:348 83:368 84:313 85:374 86:342 87:346 88:3 89:2 90:3 91:3 92:3 93:3 94:3 95:3 96:3 97:3 98:3 99:3 100:3 101:3 102:3 103:3 312:758 313:391 314:360 315:347 316:418 317:461 318:488 319:411 320:490 321:436 322:449 323:469 324:410 325:460 326:468 327:506 328:534 329:413 330:412 331:510 332:428 333:391 334:423 335:461 336:471 337:425 338:436 339:386 340:502 341:459 342:481 343:495 344:463 345:466 346:520 347:480 348:493 349:436 350:572 351:436 352:352 353:408 354:359 355:457 356:446 357:467 358:470 359:446 360:481 361:360 362:464 363:543 364:433 365:484 366:411 367:474 368:472 369:460 370:461 371:466 372:441 373:419 374:496 375:458 376:4 377:3 378:3 379:3 380:3 381:3 382:4 383:3 384:4 385:3 386:3 387:4 388:3 389:4 390:4 391:4 392:4 393:3 394:3 395:4 396:3 397:3 398:3 399:4 400:4 401:3 402:4 403:3 404:4 405:4 406:4 407:4 408:3 409:4 410:4 411:4 412:4 413:4 414:4 415:3 416:3 417:3 418:3 419:4 420:4 421:4 422:4 423:4 424:4 425:3 426:4 427:4 428:3 429:4 430:3 431:4 432:4 433:4 434:4 435:4 436:3 437:3 438:4 439:4 
0.08203125 12:1967 13:969 14:970 15:1159 16:11 17:9 18:9 19:10 72:2143 73:930 74:856 75:974 76:927 77:1008 78:1066 79:871 80:908 81:898 82:824 83:718 84:831 85:677 86:958 87:903 88:10 89:7 90:7 91:7 92:7 93:7 94:8 95:7 96:7 97:7 98:7 99:6 100:7 101:6 102:7 103:7 312:911 313:325 314:274 315:403 316:329 317:315 318:274 319:293 320:309 321:319 322:266 323:365 324:234 325:287 326:309 327:332 328:327 329:293 330:261 331:327 332:355 333:257 334:354 335:370 336:380 337:279 338:358 339:290 340:327 341:332 342:351 343:302 344:404 345:387 346:301 347:338 348:349 349:263 350:382 351:384 352:373 353:321 354:274 355:407 356:316 357:332 358:305 359:356 360:329 361:363 362:341 363:404 364:320 365:323 366:380 367:340 368:273 369:341 370:340 371:351 372:376 373:318 374:309 375:353 376:4 377:2 378:2 379:2 380:2 381:2 382:2 383:2 384:2 385:2 386:2 387:2 388:2 389:2 390:2 391:2 392:2 393:2 394:2 395:2 396:2 397:2 398:2 399:2 400:2 401:2 402:2 403:2 404:2 405:2 406:2 407:2 408:2 409:2 410:2 411:2 412:2 413:2 414:2 415:2 416:2 417:2 418:2 419:2 420:2 421:2 422:2 423:2 424:2 425:2 426:2 427:2 428:2 429:2 430:2 431:2 432:2 433:2 434:2 435:2 436:2 437:2 438:2 439:2 
0.08203125 12:1271 13:912 14:1029 15:1145 16:10 17:10 18:11 19:13 72:1820 73:1160 74:1117 75:1306 76:1331 77:1237 78:1258 79:1358 80:1191 81:1249 82:1215 83:1161 84:1288 85:1254 86:1206 87:1244 88:12 89:11 90:11 91:13 92:12 93:12 94:13 95:13 96:12 97:13 98:12 99:12 100:13 101:13 102:12 103:13 312:2761 313:1327 314:1480 315:1719 316:1382 317:1915 318:1731 319:1593 320:1696 321:1538 322:1685 323:1472 324:1656 325:1719 326:1250 327:1443 328:1404 329:1606 330:1664 331:1246 332:1407 333:1369 334:1567 335:1712 336:1526 337:1400 338:1367 339:1527 340:1415 341:1575 342:1417 343:1627 344:1566 345:1637 346:1684 347:1739 348:1759 349:1391 350:1582 351:1536 352:1382 353:1558 354:1383 355:1625 356:1393 357:1471 358:1506 359:1389 360:1522 361:1614 362:1694 363:1508 364:1618 365:1391 366:1548 367:1351 368:1439 369:1263 370:1452 371:1525 372:1477 373:1464 374:1431 375:1569 376:15 377:12 378:13 379:14 380:12 381:14 382:14 383:13 384:14 385:13 386:13 387:13 388:14 389:14 390:12 391:13 392:12 393:13 394:14 395:12 396:12 397:12 398:13 399:14 400:13 401:13 402:13 403:13 404:13 405:13 406:13 407:14 408:13 409:14 410:13 411:14 412:14 413:13 414:14 415:13 416:13 417:13 418:13 419:14 420:13 421:13 422:13 423:13 424:13 425:14 426:14 427:13 428:14 429:13 430:13 431:12 432:13 433:12 434:13 435:13 436:13 437:13 438:13 439:13 
0.08203125 12:994 13:618 14:749 15:793 16:6 17:6 18:7 19:7 72:1309 73:911 74:850 75:827 76:779 77:877 78:768 79:752 80:720 81:873 82:793 83:893 84:778 85:848 86:793 87:724 88:7 89:7 90:7 91:7 92:6 93:7 94:6 95:6 96:6 97:7 98:6 99:7 100:6 101:7 102:6 103:6 312:1384 313:606 314:732 315:663 316:608 317:588 318:650 319:625 320:597 321:658 322:701 323:632 324:541 325:503 326:554 327:607 328:644 329:696 330:615 331:664 332:500 333:447 334:794 335:695 336:702 337:687 338:555 339:620 340:471 341:657 342:552 343:563 344:767 345:665 346:628 347:677 348:643 349:592 350:664 351:629 352:681 353:632 354:651 355:498 356:643 357:646 358:756 359:689 360:679 361:720 362:645 363:542 364:622 365:659 366:681 367:761 368:562 369:602 370:617 371:573 372:613 373:494 374:651 375:580 376:7 377:4 378:5 379:5 380:4 381:4 382:5 383:5 384:4 385:5 386:5 387:5 388:4 389:4 390:4 391:4 392:5 393:5 394:4 395:5 396:4 397:4 398:5 399:5 400:5 401:5 402:4 403:5 404:4 405:5 406:4 407:4 408:5 409:5 410:5 411:5 412:5 413:4 414:5 415:5 416:5 417:5 418:5 419:4 420:5 421:5 422:5 423:5 424:5 425:5 426:5 427:4 428:5 429:5 430:5 431:5 432:4 433:4 434:4 435:4 436:4 437:4 438:5 439:4 
0.08203125 12:221 13:160 14:186 15:222 16:1 17:1 18:1 19:2 72:340 73:265 74:207 75:276 76:234 77:289 78:242 79:259 80:237 81:302 82:261 83:275 84:234 85:265 86:258 87:223 88:2 89:2 90:1 91:2 92:2 93:2 94:2 95:2 96:2 97:2 98:2 99:2 100:2 101:2 102:2 103:2 312:431 313:270 314:259 315:220 316:256 317:298 318:279 319:281 320:235 321:285 322:290 323:254 324:247 325:282 326:277 327:269 328:256 329:277 330:239 331:272 332:282 333:246 334:295 335:293 336:284 337:229 338:286 339:199 340:320 341:299 342:274 343:245 344:241 345:256 346:290 347:264 348:235 349:292 350:247 351:198 352:248 353:247 354:197 355:306 356:303 357:260 358:261 359:262 360:254 361:291 362:285 363:253 364:299 365:235 366:246 367:265 368:245 369:271 370:281 371:235 372:265 373:284 374:250 375:270 376:2 377:2 378:2 379:1 380:2 381:2 382:2 383:2 384:2 385:2 386:2 387:2 388:2 389:2 390:2 391:2 392:2 393:2 394:2 395:2 396:2 397:2 398:2 399:2 400:2 401:2 402:2 403:1 404:2 405:2 406:2 407:2 408:2 409:2 410:2 411:2 412:2 413:2 414:2 415:1 416:2 417:2 418:1 419:2 420:2 421:2 422:2 423:2 424:2 425:2 426:2 427:2 428:2 429:2 430:2 431:2 432:2 433:2 434:2 435:2 436:2 437:2 438:2 439:2 
0.08203125 12:3304 13:1355 14:1424 15:1413 16:16 17:11 18:12 19:12 72:2504 73:961 74:946 75:974 76:784 77:968 78:834 79:951 80:854 81:929 82:1120 83:875 84:1021 85:842 86:888 87:754 88:11 89:7 90:7 91:7 92:6 93:7 94:6 95:7 96:6 97:7 98:7 99:6 100:7 101:6 102:7 103:6 312:223 313:92 314:82 315:79 316:78 317:93 318:88 319:80 320:79 321:84 322:81 323:89 324:71 325:88 326:51 327:81 328:65 329:74 330:76 331:75 332:81 333:78 334:63 335:75 336:92 337:62 338:76 339:72 340:82 341:93 342:101 343:65 344:80 345:71 346:79 347:85 348:69 349:77 350:70 351:84 352:76 353:99 354:74 355:62 356:57 357:69 358:67 359:60 360:59 361:71 362:70 363:76 364:77 365:85 366:80 367:68 368:77 369:81 370:64 371:57 372:55 373:55 374:76 375:78 
0.08203125 12:1871 13:943 14:969 15:1114 16:11 17:9 18:9 19:10 72:2345 73:1051 74:1175 75:1087 76:1128 77:1055 78:1088 79:1198 80:980 81:1066 82:1223 83:1208 84:1034 85:1336 86:1390 87:1114 88:12 89:8 90:9 91:9 92:9 93:9 94:9 95:9 96:8 97:9 98:9 99:9 100:9 101:10 102:10 103:9 312:1722 313:580 314:599 315:701 316:637 317:589 318:657 319:599 320:616 321:654 322:790 323:658 324:600 325:614 326:707 327:476 328:574 329:665 330:703 331:599 332:671 333:600 334:725 335:660 336:600 337:628 338:531 339:574 340:637 341:563 342:544 343:501 344:743 345:660 346:637 347:628 348:552 349:723 350:722 351:693 352:667 353:574 354:603 355:628 356:716 357:583 358:739 359:605 360:565 361:623 362:753 363:560 364:618 365:648 366:679 367:542 368:582 369:587 370:635 371:611 372:528 373:682 374:562 375:532 376:7 377:4 378:4 379:5 380:4 381:4 382:4 383:4 384:4 385:4 386:5 387:4 388:4 389:4 390:5 391:4 392:4 393:4 394:5 395:4 396:5 397:4 398:5 399:4 400:4 401:4 402:4 403:4 404:4 405:4 406:4 407:4 408:5 409:4 410:4 411:4 412:4 413:5 414:5 415:5 416:4 417:4 418:4 419:4 420:5 421:4 422:5 423:4 424:4 425:4 426:5 427:4 428:4 429:4 430:5 431:4 432:4 433:4 434:4 435:4 436:4 437:5 438:4 439:4 
0.08203125 12:2729 13:1278 14:1463 15:1466 16:17 17:13 18:14 19:15 72:3579 73:1652 74:1788 75:1836 76:1673 77:2083 78:1685 79:1772 80:1873 81:1830 82:1885 83:1898 84:1656 85:1891 86:1966 87:1913 88:19 89:14 90:15 91:15 92:14 93:16 94:15 95:15 96:15 97:15 98:15 99:15 100:14 101:15 102:16 103:15 312:3145 313:1134 314:1151 315:1275 316:1228 317:1459 318:1139 319:1285 320:1245 321:1242 322:1203 323:1300 324:1366 325:1456 326:1437 327:1158 328:1243 329:1458 330:1555 331:1080 332:1244 333:1118 334:1215 335:1202 336:1421 337:1321 338:1152 339:1175 340:1043 341:1158 342:1299 343:1408 344:1362 345:1345 346:1027 347:1295 348:1099 349:1393 350:1100 351:1241 352:1497 353:1239 354:1275 355:1486 356:1245 357:1083 358:1317 359:1255 360:1020 361:1262 362:1329 363:1255 364:1196 365:1259 366:1123 367:1242 368:1178 369:1124 370:1222 371:1059 372:1403 373:1321 374:1362 375:1354 376:15 377:9 378:9 379:9 380:9 381:10 382:9 383:9 384:9 385:9 386:9 387:9 388:10 389:10 390:10 391:9 392:9 393:10 394:10 395:9 396:9 397:9 398:9 399:9 400:10 401:10 402:9 403:9 404:8 405:9 406:9 407:10 408:10 409:10 410:8 411:9 412:9 413:10 414:9 415:9 416:10 417:9 418:9 419:10 420:9 421:9 422:9 423:9 424:8 425:9 426:10 427:9 428:9 429:9 430:9 431:9 432:9 433:9 434:9 435:8 436:10 437:10 438:10 439:10 
0.08203125 12:1256 13:698 14:763 15:764 16:7 17:7 18:7 19:7 72:1621 73:804 74:784 75:791 76:762 77:962 78:867 79:831 80:821 81:913 82:788 83:876 84:932 85:832 86:940 87:805 88:8 89:7 90:7 91:7 92:7 93:7 94:7 95:7 96:7 97:7 98:7 99:7 100:7 101:7 102:7 103:7 312:1772 313:669 314:801 315:762 316:644 317:1013 318:811 319:747 320:815 321:806 322:832 323:687 324:756 325:774 326:745 327:731 328:789 329:827 330:593 331:688 332:788 333:785 334:686 335:717 336:849 337:732 338:688 339:738 340:840 341:642 342:723 343:767 344:754 345:740 346:815 347:680 348:660 349:646 350:848 351:653 352:769 353:884 354:684 355:659 356:683 357:708 358:714 359:746 360:754 361:587 362:641 363:574 364:646 365:805 366:737 367:664 368:647 369:811 370:716 371:720 372:839 373:663 374:766 375:717 376:8 377:5 378:6 379:5 380:5 381:6 382:6 383:5 384:6 385:6 386:6 387:5 388:5 389:5 390:5 391:5 392:5 393:6 394:5 395:5 396:6 397:5 398:5 399:5 400:6 401:5 402:5 403:5 404:6 405:5 406:5 407:5 408:5 409:5 410:6 411:5 412:5 413:5 414:6 415:5 416:5 417:6 418:5 419:5 420:5 421:5 422:5 423:5 424:5 425:5 426:5 427:5 428:5 429:6 430:5 431:5 432:5 433:6 434:5 435:5 436:6 437:5 438:5 439:5 
0.08203125 12:636 13:406 14:310 15:540 16:4 17:4 18:4 19:5 72:813 73:508 74:481 75:509 76:553 77:583 78:641 79:618 80:472 81:592 82:618 83:584 84:524 85:618 86:564 87:618 88:5 89:4 90:4 91:5 92:5 93:5 94:5 95:5 96:4 97:5 98:5 99:5 100:5 101:5 102:5 103:5 312:1130 313:613 314:595 315:494 316:541 317:769 318:614 319:518 320:738 321:648 322:954 323:533 324:623 325:520 326:610 327:807 328:705 329:686 330:686 331:532 332:499 333:488 334:555 335:558 336:458 337:614 338:610 339:614 340:590 341:628 342:669 343:603 344:649 345:616 346:859 347:627 348:594 349:584 350:503 351:529 352:620 353:504 354:684 355:709 356:633 357:623 358:536 359:591 360:562 361:540 362:539 363:599 364:624 365:544 366:611 367:445 368:644 369:589 370:678 371:625 372:586 373:616 374:674 375:638 376:6 377:4 378:4 379:4 380:4 381:5 382:5 383:4 384:5 385:5 386:6 387:4 388:5 389:4 390:5 391:5 392:5 393:5 394:5 395:4 396:4 397:4 398:4 399:4 400:4 401:5 402:5 403:5 404:5 405:5 406:5 407:5 408:5 409:5 410:5 411:5 412:5 413:5 414:4 415:4 416:5 417:4 418:5 419:5 420:5 421:5 422:4 423:5 424:4 425:4 426:4 427:5 428:5 429:4 430:5 431:4 432:5 433:5 434:5 435:5 436:4 437:5 438:5 439:5 
0.08203125 12:2131 13:1320 14:1292 15:1463 16:14 17:13 18:13 19:14 72:3123 73:1404 74:1514 75:1491 76:1455 77:1786 78:1636 79:1280 80:1765 81:1686 82:1876 83:1659 84:1753 85:1672 86:1649 87:1351 88:17 89:13 90:14 91:14 92:14 93:15 94:15 95:13 96:15 97:15 98:16 99:15 100:15 101:15 102:15 103:13 312:3994 313:1862 314:1994 315:1757 316:1846 317:2007 318:1602 319:1601 320:2029 321:1683 322:1675 323:1440 324:1868 325:1857 326:1585 327:1752 328:1580 329:1594 330:1621 331:1609 332:1893 333:1875 334:1890 335:1740 336:1548 337:1555 338:1689 339:1830 340:1776 341:1715 342:1576 343:1312 344:2047 345:1649 346:1794 347:1803 348:1502 349:1782 350:1964 351:1510 352:1652 353:2043 354:1671 355:1427 356:1680 357:1680 358:1730 359:1467 360:1681 361:1673 362:1519 363:1652 364:1442 365:1583 366:1665 367:1768 368:1376 369:1835 370:1575 371:1618 372:1583 373:1863 374:1684 375:1806 376:19 377:14 378:14 379:13 380:14 381:14 382:13 383:13 384:14 385:13 386:13 387:12 388:14 389:14 390:13 391:13 392:13 393:13 394:13 395:13 396:14 397:14 398:14 399:13 400:13 401:13 402:13 403:14 404:14 405:13 406:13 407:12 408:15 409:13 410:14 411:14 412:12 413:14 414:14 415:13 416:13 417:15 418:13 419:12 420:13 421:13 422:13 423:12 424:13 425:13 426:13 427:13 428:12 429:13 430:13 431:14 432:12 433:14 434:13 435:13 436:13 437:14 438:13 439:14 
0.08203125 12:400 13:105 14:130 15:477 16:2 17:1 18:2 19:3 72:390 73:180 74:132 75:381 76:209 77:438 78:340 79:264 80:114 81:329 82:452 83:310 84:299 85:314 86:297 87:357 88:2 89:2 90:1 91:3 92:2 93:3 94:3 95:3 96:1 97:3 98:3 99:3 100:3 101:3 102:3 103:3 312:458 313:316 314:266 315:264 316:258 317:423 318:313 319:290 320:210 321:302 322:435 323:334 324:444 325:372 326:375 327:322 328:336 329:453 330:280 331:274 332:308 333:366 334:355 335:324 336:366 337:319 338:395 339:373 340:405 341:351 342:297 343:411 344:232 345:341 346:354 347:340 348:315 349:310 350:363 351:373 352:365 353:342 354:285 355:403 356:393 357:313 358:429 359:389 360:411 361:355 362:404 363:419 364:367 365:409 366:374 367:358 368:310 369:361 370:313 371:330 372:360 373:385 374:336 375:351 376:3 377:2 378:2 379:2 380:2 381:3 382:3 383:3 384:2 385:2 386:3 387:3 388:3 389:3 390:3 391:3 392:2 393:3 394:3 395:2 396:3 397:3 398:3 399:3 400:3 401:3 402:3 403:3 404:3 405:3 406:3 407:3 408:2 409:3 410:3 411:3 412:3 413:3 414:3 415:3 416:3 417:3 418:3 419:3 420:3 421:3 422:3 423:3 424:3 425:3 426:3 427:3 428:3 429:3 430:3 431:3 432:3 433:3 434:3 435:3 436:3 437:3 438:3 439:3 
0.08203125 12:792 13:475 14:569 15:595 16:5 17:5 18:6 19:6 72:1121 73:561 74:690 75:582 76:573 77:751 78:713 79:798 80:710 81:786 82:756 83:715 84:590 85:773 86:597 87:717 88:6 89:5 90:6 91:5 92:5 93:6 94:6 95:6 96:6 97:6 98:6 99:6 100:5 101:6 102:5 103:6 312:1260 313:632 314:785 315:685 316:614 317:834 318:661 319:644 320:651 321:640 322:560 323:717 324:669 325:686 326:659 327:763 328:568 329:763 330:621 331:557 332:676 333:736 334:602 335:626 336:658 337:750 338:704 339:571 340:560 341:590 342:567 343:693 344:660 345:612 346:688 347:581 348:684 349:724 350:652 351:649 352:721 353:691 354:560 355:602 356:610 357:660 358:609 359:619 360:748 361:619 362:676 363:622 364:635 365:633 366:650 367:629 368:664 369:584 370:599 371:698 372:635 373:661 374:670 375:559 376:6 377:5 378:5 379:5 380:4 381:5 382:5 383:5 384:5 385:5 386:4 387:5 388:5 389:5 390:5 391:5 392:4 393:5 394:5 395:4 396:5 397:5 398:5 399:5 400:5 401:5 402:5 403:4 404:4 405:4 406:4 407:5 408:5 409:5 410:5 411:4 412:5 413:5 414:5 415:5 416:5 417:5 418:4 419:4 420:5 421:5 422:5 423:5 424:5 425:5 426:5 427:5 428:5 429:5 430:5 431:5 432:5 433:4 434:4 435:5 436:5 437:5 438:5 439:4 
0.08203125 12:1071 13:967 14:810 15:1038 16:8 17:10 18:9 19:12 72:1432 73:1024 74:952 75:1122 76:1056 77:1107 78:1079 79:1075 80:1031 81:917 82:1102 83:1179 84:974 85:1180 86:1179 87:1114 88:10 89:9 90:10 91:12 92:10 93:11 94:11 95:11 96:10 97:11 98:11 99:12 100:11 101:12 102:12 103:11 312:2092 313:1205 314:1387 315:1286 316:1251 317:1333 318:1275 319:1432 320:1477 321:1392 322:1487 323:1024 324:1162 325:1274 326:1136 327:1291 328:1147 329:1005 330:1387 331:1273 332:1201 333:1085 334:1092 335:1187 336:1159 337:1286 338:1279 339:982 340:1257 341:1188 342:1303 343:1234 344:1203 345:1367 346:1233 347:1132 348:1224 349:1320 350:1275 351:1197 352:1327 353:1205 354:1134 355:1274 356:1304 357:1334 358:1054 359:1193 360:1159 361:1045 362:1309 363:1291 364:1211 365:1262 366:1175 367:1333 368:1172 369:1464 370:1036 371:1267 372:1094 373:1185 374:1288 375:1303 376:12 377:10 378:11 379:11 380:11 381:11 382:12 383:12 384:12 385:12 386:12 387:10 388:11 389:12 390:11 391:12 392:11 393:10 394:12 395:12 396:11 397:11 398:11 399:11 400:11 401:12 402:12 403:10 404:12 405:11 406:12 407:11 408:11 409:12 410:11 411:11 412:11 413:12 414:12 415:11 416:12 417:11 418:11 419:12 420:12 421:12 422:11 423:11 424:11 425:10 426:12 427:12 428:11 429:12 430:11 431:12 432:11 433:12 434:11 435:12 436:11 437:11 438:12 439:12 
0.08203125 12:1188 13:825 14:669 15:759 16:7 17:7 18:7 19:8 72:1651 73:839 74:784 75:836 76:849 77:917 78:781 79:837 80:886 81:1005 82:887 83:692 84:816 85:903 86:769 87:755 88:9 89:7 90:7 91:8 92:7 93:8 94:7 95:7 96:8 97:8 98:8 99:7 100:7 101:8 102:7 103:7 312:1974 313:832 314:1263 315:909 316:865 317:1144 318:957 319:1006 320:1074 321:922 322:859 323:909 324:869 325:853 326:856 327:796 328:817 329:988 330:827 331:856 332:878 333:823 334:933 335:949 336:971 337:865 338:1031 339:1011 340:876 341:924 342:1028 343:791 344:913 345:895 346:825 347:830 348:883 349:849 350:807 351:857 352:934 353:850 354:938 355:901 356:938 357:1013 358:886 359:1007 360:1073 361:819 362:896 363:917 364:878 365:780 366:813 367:856 368:903 369:892 370:983 371:869 372:895 373:672 374:905 375:904 376:9 377:6 378:8 379:7 380:6 381:7 382:7 383:7 384:7 385:7 386:6 387:7 388:7 389:7 390:7 391:6 392:6 393:7 394:6 395:7 396:7 397:6 398:7 399:7 400:7 401:7 402:7 403:7 404:7 405:7 406:7 407:6 408:7 409:7 410:6 411:6 412:7 413:6 414:6 415:6 416:7 417:6 418:7 419:7 420:7 421:7 422:7 423:7 424:7 425:6 426:7 427:7 428:7 429:6 430:6 431:6 432:7 433:7 434:7 435:7 436:7 437:6 438:7 439:7 
0.08203125 12:1798 13:1132 14:999 15:1413 16:12 17:12 18:11 19:14 72:2385 73:1259 74:1262 75:1267 76:1357 77:1699 78:1337 79:1522 80:1184 81:1345 82:1563 83:1388 84:1335 85:1366 86:1315 87:1501 88:14 89:12 90:12 91:13 92:13 93:14 94:13 95:14 96:12 97:13 98:13 99:13 100:13 101:13 102:13 103:14 312:2986 313:1370 314:1513 315:1091 316:1544 317:1475 318:1614 319:1170 320:1494 321:1440 322:1715 323:1605 324:1434 325:1649 326:1545 327:1673 328:1464 329:1619 330:1370 331:1339 332:1481 333:1737 334:1444 335:1401 336:1545 337:1406 338:1440 339:1225 340:1625 341:1569 342:1437 343:1421 344:1453 345:1495 346:1358 347:1388 348:1587 349:1342 350:1526 351:1569 352:1662 353:1617 354:1340 355:1451 356:1182 357:1503 358:1547 359:1419 360:1604 361:1516 362:1208 363:1536 364:1603 365:1549 366:1351 367:1549 368:1430 369:1545 370:1399 371:1453 372:1527 373:1344 374:1548 375:1608 376:15 377:11 378:12 379:11 380:12 381:12 382:13 383:11 384:12 385:13 386:13 387:13 388:12 389:13 390:13 391:13 392:12 393:13 394:12 395:12 396:12 397:13 398:12 399:12 400:13 401:12 402:12 403:11 404:13 405:13 406:12 407:12 408:12 409:13 410:12 411:12 412:13 413:12 414:13 415:13 416:13 417:13 418:12 419:12 420:11 421:13 422:13 423:12 424:13 425:13 426:11 427:13 428:13 429:13 430:12 431:13 432:12 433:13 434:12 435:12 436:13 437:12 438:13 439:13 
0.08203125 12:802 13:790 14:640 15:702 16:6 17:8 18:7 19:9 72:1092 73:983 74:688 75:820 76:1030 77:1174 78:1046 79:963 80:874 81:1045 82:1113 83:958 84:955 85:1003 86:874 87:1048 88:8 89:8 90:7 91:9 92:9 93:9 94:10 95:9 96:9 97:10 98:9 99:9 100:10 101:10 102:9 103:10 312:1468 313:998 314:799 315:906 316:917 317:1225 318:1023 319:891 320:1075 321:797 322:1292 323:853 324:1069 325:1112 326:1069 327:1246 328:919 329:1097 330:1096 331:889 332:1413 333:1108 334:1012 335:884 336:1372 337:1276 338:903 339:1048 340:1104 341:1180 342:1058 343:1158 344:1207 345:1105 346:975 347:939 348:1055 349:1188 350:1073 351:1123 352:945 353:1136 354:1233 355:1158 356:1020 357:1032 358:920 359:1262 360:1087 361:1148 362:888 363:1057 364:1037 365:1030 366:1018 367:1149 368:890 369:941 370:1065 371:1182 372:826 373:1089 374:1206 375:1086 376:9 377:8 378:8 379:8 380:8 381:9 382:9 383:8 384:9 385:8 386:9 387:8 388:10 389:10 390:9 391:10 392:8 393:9 394:10 395:9 396:10 397:9 398:9 399:9 400:10 401:10 402:9 403:9 404:10 405:10 406:9 407:10 408:10 409:10 410:9 411:9 412:9 413:10 414:10 415:10 416:9 417:10 418:10 419:10 420:9 421:9 422:9 423:10 424:10 425:10 426:9 427:9 428:9 429:9 430:9 431:10 432:9 433:9 434:10 435:10 436:8 437:10 438:10 439:10 
0.08203125 12:564 13:616 14:602 15:654 16:5 17:6 18:6 19:7 72:871 73:594 74:743 75:880 76:596 77:956 78:843 79:795 80:688 81:810 82:959 83:846 84:897 85:817 86:844 87:734 88:7 89:6 90:7 91:8 92:6 93:8 94:8 95:8 96:7 97:8 98:8 99:8 100:8 101:8 102:8 103:7 312:1422 313:943 314:1074 315:1043 316:1065 317:1333 318:1032 319:1047 320:1055 321:1327 322:997 323:843 324:933 325:1052 326:991 327:999 328:1011 329:1181 330:953 331:986 332:924 333:1091 334:1147 335:840 336:878 337:1146 338:1119 339:1045 340:1035 341:1148 342:1229 343:1005 344:953 345:1093 346:1237 347:1104 348:966 349:809 350:969 351:753 352:1173 353:942 354:1110 355:952 356:1095 357:1089 358:946 359:1188 360:1036 361:1195 362:1103 363:1189 364:1049 365:1005 366:980 367:1044 368:1021 369:918 370:1042 371:813 372:1136 373:998 374:1033 375:1060 376:9 377:8 378:8 379:8 380:8 381:9 382:9 383:9 384:9 385:10 386:8 387:8 388:8 389:9 390:8 391:8 392:8 393:9 394:8 395:9 396:8 397:9 398:9 399:8 400:8 401:9 402:9 403:9 404:9 405:9 406:9 407:8 408:8 409:9 410:9 411:9 412:8 413:8 414:8 415:7 416:9 417:8 418:9 419:8 420:9 421:9 422:8 423:9 424:9 425:9 426:9 427:9 428:9 429:9 430:8 431:9 432:9 433:8 434:9 435:8 436:9 437:9 438:9 439:9 
0.08203125 12:1258 13:1008 14:1096 15:1066 16:9 17:9 18:10 19:10 72:1591 73:975 74:1006 75:946 76:990 77:1413 78:1149 79:1054 80:1058 81:1083 82:1334 83:1140 84:1094 85:981 86:992 87:1100 88:10 89:9 90:9 91:9 92:9 93:11 94:10 95:10 96:10 97:10 98:11 99:10 100:10 101:9 102:9 103:10 312:2108 313:948 314:949 315:980 316:1164 317:1446 318:1126 319:1447 320:1082 321:1144 322:1370 323:1192 324:1230 325:1148 326:1197 327:1290 328:1102 329:1109 330:1332 331:1010 332:1333 333:1118 334:1102 335:1148 336:1097 337:958 338:1135 339:1154 340:1280 341:1139 342:1149 343:1156 344:1225 345:1166 346:1114 347:1225 348:1148 349:1300 350:1090 351:1279 352:1102 353:1076 354:1563 355:985 356:1085 357:1223 358:1129 359:1194 360:1036 361:1032 362:1266 363:1183 364:941 365:1162 366:977 367:1257 368:1200 369:1250 370:1109 371:1241 372:1017 373:1217 374:1135 375:1136 376:11 377:8 378:8 379:8 380:9 381:10 382:9 383:10 384:9 385:9 386:10 387:9 388:10 389:9 390:9 391:10 392:9 393:9 394:10 395:9 396:10 397:9 398:9 399:9 400:9 401:8 402:9 403:9 404:10 405:9 406:9 407:9 408:9 409:9 410:9 411:9 412:9 413:10 414:9 415:10 416:9 417:9 418:10 419:8 420:9 421:9 422:9 423:9 424:9 425:9 426:10 427:9 428:8 429:9 430:8 431:10 432:9 433:9 434:9 435:9 436:9 437:9 438:9 439:9 
0.08203125 12:395 13:362 14:243 15:347 16:3 17:3 18:3 19:4 72:619 73:418 74:330 75:466 76:345 77:476 78:508 79:461 80:416 81:464 82:526 83:494 84:436 85:480 86:507 87:462 88:4 89:4 90:3 91:4 92:3 93:4 94:4 95:4 96:4 97:4 98:4 99:4 100:4 101:4 102:4 103:4 312:895 313:583 314:628 315:447 316:515 317:640 318:599 319:600 320:656 321:639 322:769 323:674 324:589 325:608 326:580 327:541 328:589 329:658 330:662 331:660 332:563 333:493 334:585 335:624 336:620 337:614 338:514 339:567 340:586 341:583 342:553 343:599 344:633 345:550 346:755 347:575 348:616 349:568 350:544 351:600 352:464 353:563 354:630 355:547 356:524 357:690 358:562 359:542 360:637 361:511 362:708 363:543 364:620 365:455 366:518 367:607 368:651 369:581 370:603 371:552 372:527 373:574 374:602 375:533 376:5 377:4 378:5 379:4 380:4 381:5 382:5 383:5 384:5 385:5 386:5 387:5 388:5 389:5 390:4 391:4 392:4 393:5 394:5 395:5 396:4 397:4 398:4 399:5 400:5 401:5 402:4 403:4 404:4 405:4 406:4 407:5 408:5 409:4 410:5 411:4 412:5 413:4 414:4 415:5 416:4 417:4 418:5 419:4 420:4 421:5 422:4 423:4 424:5 425:4 426:5 427:4 428:5 429:4 430:4 431:5 432:5 433:5 434:5 435:4 436:4 437:4 438:5 439:4 
0.08203125 12:757 13:350 14:592 15:560 16:5 17:4 18:5 19:5 72:943 73:566 74:505 75:646 76:624 77:552 78:484 79:610 80:576 81:597 82:567 83:563 84:635 85:584 86:581 87:588 88:5 89:4 90:4 91:5 92:5 93:5 94:4 95:5 96:5 97:5 98:5 99:5 100:5 101:5 102:5 103:5 312:1079 313:492 314:376 315:440 316:487 317:440 318:461 319:521 320:533 321:401 322:656 323:529 324:548 325:534 326:551 327:538 328:541 329:536 330:484 331:483 332:408 333:643 334:485 335:558 336:514 337:459 338:372 339:561 340:549 341:501 342:509 343:487 344:489 345:503 346:496 347:539 348:446 349:508 350:551 351:600 352:442 353:478 354:460 355:535 356:542 357:470 358:550 359:563 360:464 361:555 362:460 363:584 364:456 365:455 366:440 367:511 368:476 369:573 370:474 371:457 372:435 373:432 374:529 375:517 376:5 377:3 378:3 379:3 380:3 381:3 382:3 383:4 384:4 385:3 386:4 387:4 388:4 389:4 390:4 391:4 392:4 393:4 394:3 395:3 396:3 397:4 398:3 399:4 400:4 401:3 402:3 403:4 404:4 405:4 406:4 407:3 408:3 409:4 410:3 411:4 412:3 413:4 414:4 415:4 416:3 417:3 418:3 419:4 420:4 421:3 422:4 423:4 424:3 425:4 426:3 427:4 428:3 429:3 430:3 431:4 432:3 433:4 434:3 435:3 436:3 437:3 438:4 439:4 
0.08203125 12:868 13:594 14:537 15:651 16:6 17:6 18:5 19:6 72:1198 73:641 74:712 75:722 76:706 77:993 78:697 79:768 80:719 81:852 82:730 83:672 84:737 85:654 86:749 87:854 88:7 89:6 90:6 91:6 92:6 93:7 94:6 95:7 96:6 97:7 98:6 99:6 100:6 101:6 102:6 103:7 312:1538 313:647 314:842 315:653 316:780 317:569 318:700 319:787 320:935 321:781 322:947 323:721 324:690 325:780 326:614 327:765 328:711 329:828 330:766 331:810 332:924 333:537 334:819 335:804 336:846 337:855 338:641 339:805 340:817 341:745 342:708 343:688 344:741 345:785 346:712 347:724 348:767 349:768 350:767 351:765 352:630 353:813 354:693 355:695 356:615 357:809 358:841 359:803 360:789 361:618 362:766 363:907 364:746 365:717 366:749 367:802 368:826 369:853 370:778 371:773 372:689 373:659 374:727 375:706 376:8 377:5 378:6 379:5 380:6 381:5 382:5 383:6 384:6 385:6 386:6 387:6 388:5 389:6 390:5 391:6 392:5 393:6 394:6 395:6 396:6 397:5 398:6 399:6 400:6 401:6 402:5 403:6 404:6 405:6 406:5 407:5 408:6 409:6 410:5 411:6 412:6 413:6 414:6 415:6 416:5 417:6 418:5 419:5 420:5 421:6 422:6 423:6 424:6 425:5 426:6 427:6 428:6 429:6 430:6 431:6 432:6 433:6 434:6 435:6 436:5 437:5 438:6 439:5 
0.08203125 12:755 13:485 14:439 15:507 16:5 17:4 18:4 19:5 72:976 73:476 74:523 75:530 76:489 77:608 78:502 79:550 80:453 81:583 82:604 83:557 84:531 85:561 86:531 87:510 88:5 89:4 90:4 91:4 92:4 93:4 94:4 95:4 96:4 97:4 98:4 99:4 100:4 101:4 102:4 103:4 312:933 313:383 314:515 315:319 316:377 317:595 318:437 319:521 320:441 321:432 322:372 323:427 324:458 325:305 326:355 327:325 328:454 329:469 330:499 331:441 332:433 333:474 334:440 335:392 336:492 337:366 338:414 339:445 340:452 341:349 342:432 343:422 344:424 345:335 346:343 347:378 348:451 349:362 350:349 351:379 352:425 353:427 354:446 355:443 356:388 357:451 358:461 359:373 360:439 361:352 362:418 363:415 364:444 365:430 366:410 367:382 368:424 369:393 370:436 371:458 372:487 373:370 374:457 375:367 376:4 377:3 378:3 379:2 380:3 381:3 382:3 383:3 384:3 385:3 386:3 387:3 388:3 389:2 390:2 391:2 392:3 393:3 394:3 395:3 396:3 397:3 398:3 399:3 400:3 401:3 402:3 403:3 404:3 405:2 406:3 407:3 408:3 409:2 410:2 411:3 412:3 413:2 414:2 415:3 416:3 417:3 418:3 419:3 420:3 421:3 422:3 423:3 424:3 425:2 426:3 427:3 428:3 429:3 430:3 431:3 432:3 433:3 434:3 435:3 436:3 437:3 438:3 439:3 
0.08203125 12:1185 13:655 14:704 15:799 16:7 17:6 18:7 19:8 72:1606 73:877 74:969 75:947 76:879 77:1139 78:1020 79:841 80:904 81:837 82:943 83:867 84:787 85:943 86:856 87:889 88:9 89:7 90:7 91:8 92:7 93:8 94:8 95:7 96:7 97:7 98:8 99:7 100:7 101:8 102:7 103:7 312:1665 313:769 314:821 315:636 316:819 317:977 318:915 319:719 320:812 321:784 322:789 323:567 324:785 325:736 326:798 327:730 328:716 329:888 330:680 331:711 332:761 333:793 334:604 335:761 336:626 337:617 338:809 339:768 340:741 341:695 342:730 343:677 344:844 345:786 346:754 347:758 348:845 349:608 350:747 351:796 352:755 353:855 354:750 355:819 356:737 357:845 358:781 359:863 360:657 361:622 362:820 363:688 364:669 365:799 366:737 367:724 368:755 369:774 370:704 371:731 372:757 373:763 374:728 375:846 376:8 377:5 378:6 379:5 380:6 381:6 382:6 383:5 384:6 385:6 386:6 387:5 388:6 389:5 390:6 391:5 392:5 393:6 394:5 395:5 396:5 397:6 398:5 399:5 400:5 401:5 402:6 403:6 404:5 405:5 406:5 407:5 408:6 409:6 410:5 411:5 412:6 413:5 414:5 415:6 416:5 417:6 418:5 419:6 420:5 421:6 422:6 423:6 424:5 425:5 426:6 427:5 428:5 429:6 430:5 431:5 432:5 433:6 434:5 435:5 436:5 437:5 438:5 439:6 
0.08203125 12:227 13:86 14:169 15:220 16:1 17:1 18:2 19:2 72:300 73:180 74:233 75:266 76:168 77:278 78:232 79:277 80:213 81:331 82:273 83:243 84:205 85:283 86:241 87:259 88:2 89:1 90:2 91:2 92:2 93:2 94:2 95:2 96:2 97:3 98:2 99:2 100:2 101:2 102:2 103:2 312:407 313:310 314:268 315:367 316:293 317:312 318:289 319:269 320:243 321:312 322:341 323:298 324:276 325:315 326:239 327:266 328:240 329:324 330:339 331:283 332:237 333:291 334:290 335:323 336:305 337:295 338:309 339:305 340:283 341:309 342:283 343:330 344:214 345:254 346:432 347:275 348:297 349:258 350:282 351:300 352:301 353:283 354:294 355:270 356:329 357:270 358:283 359:266 360:261 361:258 362:252 363:253 364:254 365:278 366:310 367:270 368:260 369:225 370:329 371:300 372:279 373:320 374:289 375:298 376:2 377:2 378:2 379:2 380:2 381:2 382:2 383:2 384:2 385:2 386:2 387:2 388:2 389:2 390:2 391:2 392:2 393:2 394:2 395:2 396:2 397:2 398:2 399:2 400:2 401:2 402:2 403:2 404:2 405:2 406:2 407:3 408:2 409:2 410:2 411:2 412:2 413:2 414:2 415:2 416:2 417:2 418:2 419:2 420:2 421:2 422:2 423:2 424:2 425:2 426:2 427:2 428:2 429:2 430:2 431:2 432:2 433:2 434:2 435:2 436:2 437:2 438:2 439:2 
0.08203125 12:286 13:365 14:312 15:337 16:2 17:3 18:4 19:4 72:416 73:412 74:407 75:450 76:381 77:436 78:493 79:475 80:376 81:470 82:451 83:401 84:405 85:395 86:515 87:437 88:3 89:4 90:4 91:5 92:4 93:5 94:5 95:5 96:4 97:5 98:5 99:5 100:5 101:4 102:5 103:5 312:677 313:512 314:597 315:704 316:521 317:586 318:637 319:596 320:542 321:713 322:620 323:578 324:623 325:653 326:597 327:462 328:566 329:692 330:612 331:555 332:601 333:489 334:611 335:610 336:543 337:582 338:484 339:651 340:498 341:641 342:513 343:641 344:563 345:646 346:634 347:706 348:656 349:602 350:564 351:650 352:630 353:525 354:635 355:660 356:600 357:625 358:559 359:574 360:615 361:625 362:702 363:637 364:627 365:608 366:513 367:625 368:563 369:684 370:602 371:591 372:528 373:605 374:596 375:656 376:5 377:4 378:5 379:6 380:4 381:5 382:6 383:5 384:5 385:6 386:5 387:5 388:5 389:6 390:5 391:5 392:5 393:5 394:5 395:5 396:5 397:5 398:6 399:6 400:5 401:5 402:5 403:6 404:5 405:6 406:5 407:6 408:5 409:6 410:5 411:6 412:6 413:5 414:5 415:6 416:5 417:5 418:6 419:6 420:5 421:5 422:5 423:5 424:6 425:6 426:6 427:6 428:6 429:6 430:5 431:6 432:5 433:6 434:6 435:5 436:5 437:5 438:5 439:6 
0.08203125 12:1306 13:574 14:737 15:902 16:8 17:7 18:9 19:9 72:1893 73:1155 74:990 75:1050 76:934 77:968 78:1070 79:1157 80:1084 81:1032 82:1006 83:1065 84:1093 85:1093 86:1085 87:959 88:10 89:9 90:9 91:10 92:9 93:9 94:10 95:10 96:10 97:10 98:9 99:9 100:10 101:10 102:10 103:9 312:2672 313:1407 314:1043 315:1406 316:1329 317:1295 318:1276 319:1163 320:1389 321:1224 322:1113 323:1180 324:1274 325:1039 326:1183 327:840 328:977 329:1220 330:1274 331:1333 332:1364 333:1290 334:1159 335:1241 336:1432 337:1135 338:1228 339:1207 340:1256 341:926 342:940 343:1164 344:1303 345:1198 346:1137 347:1162 348:1144 349:1224 350:1154 351:1206 352:1295 353:1191 354:1063 355:1074 356:1385 357:984 358:984 359:1303 360:1260 361:1366 362:941 363:1188 364:1315 365:1123 366:1142 367:1134 368:1157 369:1232 370:1236 371:1168 372:1210 373:1159 374:1230 375:1421 376:13 377:10 378:9 379:10 380:10 381:10 382:10 383:10 384:10 385:10 386:9 387:9 388:10 389:9 390:9 391:8 392:9 393:10 394:10 395:10 396:10 397:10 398:9 399:10 400:10 401:9 402:10 403:10 404:10 405:8 406:8 407:10 408:10 409:10 410:9 411:9 412:9 413:10 414:9 415:10 416:10 417:10 418:9 419:9 420:10 421:9 422:9 423:10 424:10 425:10 426:8 427:10 428:10 429:9 430:9 431:9 432:9 433:10 434:10 435:9 436:10 437:9 438:10 439:10 
0.08203125 12:196 13:148 14:185 15:248 16:1 17:1 18:2 19:2 72:292 73:198 74:216 75:322 76:126 77:328 78:284 79:285 80:273 81:283 82:215 83:293 84:255 85:256 86:282 87:229 88:2 89:2 90:2 91:2 92:1 93:2 94:3 95:2 96:2 97:2 98:2 99:2 100:2 101:2 102:2 103:2 312:458 313:339 314:294 315:364 316:277 317:222 318:377 319:341 320:349 321:359 322:369 323:384 324:381 325:371 326:391 327:310 328:273 329:220 330:407 331:400 332:285 333:320 334:369 335:393 336:415 337:344 338:369 339:321 340:290 341:320 342:362 343:281 344:341 345:401 346:358 347:331 348:324 349:375 350:326 351:314 352:328 353:286 354:334 355:276 356:391 357:325 358:319 359:373 360:346 361:353 362:302 363:319 364:314 365:339 366:273 367:348 368:375 369:285 370:398 371:329 372:324 373:327 374:373 375:374 376:3 377:2 378:2 379:3 380:2 381:2 382:3 383:3 384:3 385:3 386:3 387:3 388:3 389:3 390:3 391:3 392:2 393:2 394:3 395:3 396:2 397:2 398:3 399:3 400:3 401:3 402:3 403:3 404:2 405:3 406:3 407:2 408:3 409:3 410:3 411:3 412:3 413:3 414:3 415:3 416:3 417:2 418:2 419:2 420:3 421:3 422:3 423:3 424:3 425:3 426:2 427:3 428:3 429:3 430:2 431:3 432:3 433:2 434:3 435:3 436:3 437:3 438:3 439:3 
0.08203125 12:915 13:449 14:400 15:598 16:5 17:4 18:4 19:5 72:1261 73:626 74:544 75:549 76:625 77:797 78:679 79:631 80:678 81:649 82:812 83:698 84:684 85:617 86:600 87:601 88:7 89:5 90:5 91:5 92:5 93:6 94:5 95:5 96:5 97:5 98:6 99:5 100:5 101:5 102:5 103:5 312:1184 313:530 314:446 315:581 316:512 317:369 318:442 319:461 320:551 321:523 322:530 323:483 324:431 325:497 326:530 327:443 328:469 329:481 330:556 331:534 332:579 333:434 334:467 335:499 336:471 337:570 338:525 339:524 340:411 341:589 342:465 343:603 344:519 345:592 346:516 347:523 348:669 349:462 350:553 351:552 352:524 353:442 354:586 355:614 356:535 357:565 358:445 359:593 360:508 361:573 362:515 363:710 364:598 365:518 366:546 367:542 368:487 369:586 370:505 371:456 372:502 373:497 374:522 375:493 376:5 377:4 378:3 379:4 380:3 381:3 382:3 383:3 384:4 385:4 386:4 387:3 388:3 389:3 390:4 391:3 392:3 393:3 394:4 395:4 396:4 397:3 398:3 399:3 400:3 401:4 402:4 403:4 404:3 405:4 406:3 407:4 408:4 409:4 410:4 411:4 412:4 413:3 414:4 415:4 416:4 417:3 418:4 419:4 420:4 421:4 422:3 423:4 424:3 425:4 426:4 427:4 428:4 429:4 430:4 431:4 432:3 433:4 434:3 435:3 436:3 437:3 438:4 439:3 
0.08203125 12:955 13:640 14:650 15:690 16:6 17:6 18:6 19:6 72:1194 73:683 74:619 75:675 76:664 77:785 78:717 79:676 80:778 81:709 82:832 83:700 84:763 85:717 86:828 87:723 88:7 89:5 90:5 91:6 92:5 93:6 94:6 95:6 96:6 97:6 98:6 99:6 100:6 101:6 102:6 103:6 312:1110 313:478 314:555 315:542 316:553 317:676 318:571 319:507 320:611 321:589 322:578 323:564 324:493 325:560 326:596 327:550 328:571 329:736 330:601 331:488 332:640 333:407 334:623 335:550 336:544 337:546 338:529 339:571 340:594 341:451 342:434 343:654 344:476 345:528 346:552 347:570 348:642 349:625 350:549 351:539 352:592 353:570 354:566 355:564 356:570 357:482 358:500 359:541 360:464 361:558 362:629 363:543 364:612 365:576 366:599 367:653 368:513 369:603 370:566 371:630 372:657 373:551 374:589 375:659 376:5 377:4 378:4 379:4 380:4 381:4 382:4 383:4 384:4 385:4 386:4 387:4 388:4 389:4 390:4 391:4 392:4 393:5 394:4 395:4 396:4 397:3 398:4 399:4 400:4 401:4 402:4 403:4 404:4 405:3 406:3 407:4 408:4 409:4 410:4 411:4 412:4 413:4 414:4 415:4 416:4 417:4 418:4 419:4 420:4 421:4 422:4 423:4 424:4 425:4 426:4 427:4 428:4 429:4 430:4 431:4 432:4 433:4 434:4 435:4 436:4 437:4 438:4 439:4 
